34 128
34 -0.11176871 -0.12780671 0.077123739 0.019372329 0.040013332 -0.063915201 0.14926437 -0.12841874 -0.14749065 0.02777594 -0.1149902 0.006646371 0.0072794431 -0.12784478 -0.12321969 -0.12133908 0.072700225 -0.066756256 0.010703673 0.11313901 0.15474515 0.10028099 0.12836953 0.10214932 -0.098871157 -0.087158881 -0.039304473 0.053523235 -0.056259051 0.17762548 -0.005508305 0.060770623 -0.09783937 0.079519778 -0.1997149 -0.092979856 0.22884871 0.15733829 -0.040152092 -0.080940887 -0.23320523 0.13478987 0.017845361 0.048416987 -0.072669432 0.11180015 0.071531765 -0.023449028 -0.10368157 0.01599122 0.058422025 0.19037513 0.03152629 0.078471981 -0.20658243 -0.15903477 -0.079793714 -0.048263211 -0.14634593 0.067912988 -0.038749237 -0.031979702 -0.098999195 0.16187464 -0.025662547 -0.25641033 0.00066622009 -0.022888049 -0.059199203 -0.13171411 0.012434829 0.033164565 -0.015081392 0.068585679 -0.03421608 -0.10896726 -0.043277293 0.042960465 0.026105788 0.10067585 -0.044512689 -0.19856125 0.0051857755 -0.21807037 -0.041245099 0.33443713 -0.11803338 0.030306431 -0.11701573 -0.13875289 -0.012604898 0.1581669 0.097892269 -0.083147854 -0.06449081 0.19777638 -0.17418769 0.096748255 0.027412983 -0.14189242 -0.24097316 0.036659837 -0.20127505 -0.079340242 0.068786487 0.13004643 0.28656343 0.043955933 -0.037579175 -0.015943995 0.0092929201 -0.11547661 0.051964726 0.034541301 -0.010817504 0.037868548 -0.063715555 0.19712089 0.024673071 0.054887906 -0.092510261 -0.21072561 -0.053594392 -0.20879216 0.075343512 0.18731774 -0.11611781 0.054420754
1 -0.036833081 -0.24958618 0.040014133 -0.04174364 -0.043330681 -0.17816319 0.12150864 0.023745673 0.067469209 0.052586246 -0.079722844 0.17137551 0.043558698 -0.18287274 0.027718449 -0.22051939 -0.0020552175 -0.24466814 -0.015867615 0.018662199 0.26224375 0.05070509 0.1696258 0.15804853 0.063923016 -0.033670146 -0.052200701 0.079189368 0.032451715 0.1825662 -0.016739331 0.046219293 -0.15021819 0.038574539 -0.16394295 -0.17904872 0.1281123 0.084811442 -0.034580294 -0.11462255 -0.18652096 -0.0040484853 0.047179874 0.17797597 -0.17712416 0.17537887 0.10031316 0.019119861 0.0315517 0.091239981 -0.12722826 0.1229773 -0.011513703 0.16175164 -0.20558068 -0.10416934 -0.030130707 0.093267843 -0.070202813 0.0079417946 0.071406066 -0.13600355 -1.3454061e-05 0.13262081 -0.17626607 -0.017634677 0.0081261592 0.052950595 -0.066135675 -0.2247342 -0.11830591 0.02854044 -0.022585668 -0.022694513 0.19595799 -0.0072470736 0.052091129 -0.065261938 0.027894981 -0.20036465 -0.11540528 -0.077600896 -0.018561155 -0.067506179 -0.183221 0.092506044 0.082530588 -0.0419387 0.074809 -0.10125776 0.067730784 0.057421476 0.16947336 -0.074182287 -0.21260509 0.19479416 -0.068094581 -0.14280333 0.12305745 0.042614568 -0.17403173 0.033691131 -0.18901859 -0.031607643 -0.021168819 0.057922576 0.23354198 0.083659679 -0.065459691 -0.046991829 -0.052306488 0.011589236 0.10872653 0.064104013 -0.12653317 0.059970178 -0.024981854 0.21074563 -0.080127664 -0.094577499 -0.075752966 -0.1063736 0.061043032 -0.29077825 -0.11973678 0.055899009 -0.045560047 0.19868864
33 -0.09053836 -0.16058663 0.062943175 0.00790729 0.019182544 -0.090960272 0.13903882 -0.084568396 -0.085876822 0.033662759 -0.099738315 0.049604952 0.014218476 -0.14162265 -0.079103187 -0.14150368 0.04983604 -0.10877682 -0.0026353695 0.088394925 0.18312477 0.086151771 0.13659777 0.11231162 -0.059307899 -0.07311698 -0.04878369 0.058933325 -0.032687861 0.17688443 -0.010004861 0.060051989 -0.10767381 0.07150384 -0.19468285 -0.11831306 0.19994827 0.13939326 -0.043492362 -0.085540615 -0.22127472 0.10170888 0.025789309 0.076228462 -0.098936841 0.13012235 0.076555483 -0.015408685 -0.074235044 0.030275641 0.0080373557 0.17736211 0.023998806 0.09369605 -0.20724428 -0.14146335 -0.071190976 -0.014402184 -0.11792233 0.055370435 -0.00605758 -0.062570564 -0.071517237 0.15477665 -0.058504295 -0.19745035 0.0074419831 -0.0028496564 -0.059359409 -0.15089388 -0.016483895 0.033736996 -0.014538846 0.045011126 0.016993465 -0.078462169 -0.016519871 0.015337234 0.024795322 0.025216432 -0.054995541 -0.16717882 -0.0031125422 -0.17813303 -0.07854826 0.27187371 -0.067631818 0.01210022 -0.068578482 -0.12615073 0.014072487 0.13265094 0.11446325 -0.081211589 -0.095084399 0.19718622 -0.14610688 0.031595957 0.053405441 -0.095209941 -0.22318241 0.030258831 -0.19904129 -0.063047819 0.048721723 0.10420632 0.26701123 0.052724663 -0.04228463 -0.027222954 -0.0074109407 -0.081405975 0.064473607 0.031046472 -0.036688339 0.044628873 -0.054461461 0.19080281 -0.0054858839 0.015716709 -0.084774129 -0.17972651 -0.01998827 -0.22274321 0.027573032 0.14751948 -0.099895567 0.086825445
3 -0.083660536 -0.16496006 0.063874617 -0.005474471 0.0072438433 -0.1049357 0.13404311 -0.070320867 -0.068404652 0.034172729 -0.091774032 0.065736592 0.015544989 -0.14875004 -0.06401407 -0.15524267 0.043878052 -0.13456357 -0.00041066131 0.071113482 0.18582737 0.082703412 0.13425802 0.12583102 -0.033183444 -0.063699737 -0.042974155 0.064700209 -0.014658434 0.18003994 -0.011258323 0.049001392 -0.1155555 0.066970289 -0.17958191 -0.12474373 0.18554255 0.12699592 -0.036848526 -0.087637439 -0.20488663 0.071551248 0.025773788 0.09745761 -0.11282462 0.13482134 0.082263865 -0.0068612914 -0.05602552 0.042103726 -0.01037027 0.15114757 0.0090744924 0.10429166 -0.19876572 -0.13222057 -0.057347726 0.0063652154 -0.11957106 0.04699818 -0.0005295857 -0.067986466 -0.057568256 0.14943343 -0.085802004 -0.16112261 0.0078065051 0.0091364104 -0.061858471 -0.16754216 -0.03615272 0.033972729 -0.02209897 0.036776692 0.060060538 -0.066822037 -0.0032145255 -0.0011866519 0.030006532 -0.0179743 -0.069638237 -0.14291148 -0.0048509631 -0.15477957 -0.090889998 0.23745501 -0.03894747 0.001946032 -0.041943803 -0.12828282 0.018008631 0.11963428 0.12275594 -0.079294071 -0.12220683 0.19551283 -0.13351335 0.0076823449 0.064826511 -0.066269636 -0.2126804 0.031731579 -0.19578303 -0.05498866 0.035615817 0.10610052 0.26020023 0.060380898 -0.042501248 -0.030815665 -0.012525603 -0.065340064 0.073710755 0.045902506 -0.053917143 0.047146939 -0.049477771 0.19437484 -0.0060594333 -0.0065361434 -0.085140228 -0.17266721 -0.012946018 -0.23790354 0.00035150431 0.13348757 -0.08875192 0.10840295
2 -0.069259286 -0.19044662 0.057199571 -0.012196332 -0.0059096171 -0.12271983 0.13664971 -0.053151235 -0.046256661 0.040232502 -0.09687376 0.0913039 0.028004412 -0.15935737 -0.047505632 -0.17680794 0.031986915 -0.15796638 -0.0048340457 0.067135915 0.21459852 0.078645065 0.15361273 0.134563 -0.021627745 -0.060761351 -0.050879203 0.068439782 -0.0096201431 0.18783027 -0.0094454354 0.05083058 -0.12828726 0.060921334 -0.18829837 -0.13545129 0.1816365 0.12011412 -0.038731478 -0.10122547 -0.20715538 0.067279205 0.030373046 0.11274078 -0.12667143 0.15006535 0.08329878 -0.00017157625 -0.038065929 0.04909068 -0.033942346 0.1526026 0.010510403 0.12233721 -0.20933217 -0.13028471 -0.050268203 0.024506589 -0.11178517 0.042330354 0.014576102 -0.082197703 -0.045513321 0.14562623 -0.10603363 -0.13648319 0.0022598945 0.016417567 -0.06826961 -0.18311296 -0.055824224 0.034282099 -0.017989712 0.02157581 0.083537601 -0.056183454 0.0044576335 -0.013504708 0.027954144 -0.050748881 -0.081451714 -0.14135596 -0.010499871 -0.14176768 -0.11174979 0.22175324 -0.018080069 -0.0072718263 -0.018205365 -0.1271695 0.02933711 0.11111841 0.13696489 -0.08683946 -0.14238539 0.20207071 -0.124531 -0.024912136 0.074069746 -0.049339898 -0.20886964 0.032738145 -0.19730517 -0.055717774 0.024767892 0.092819184 0.26746845 0.069488592 -0.0517479 -0.032009825 -0.025238764 -0.051984735 0.083054513 0.046772014 -0.072810739 0.048848677 -0.046246432 0.2041477 -0.027763812 -0.024570491 -0.085793875 -0.16365486 0.0045920257 -0.25958079 -0.017990032 0.12624231 -0.080426268 0.12900831
32 -0.098425433 -0.14361188 0.060764045 0.0068444959 0.02114157 -0.07866767 0.14042078 -0.10231479 -0.10490199 0.030952064 -0.10288112 0.035945948 0.010711229 -0.1314722 -0.094301268 -0.12700397 0.060327213 -0.1004701 0.00031208026 0.09619797 0.16889253 0.091446102 0.12283013 0.11144311 -0.070723526 -0.077950619 -0.046889763 0.05848822 -0.039574157 0.16995081 -0.0070761554 0.056387439 -0.089545064 0.068389349 -0.19127557 -0.10452086 0.20105968 0.14276215 -0.040913686 -0.086738482 -0.22058715 0.1049893 0.016041758 0.061962161 -0.091978043 0.11879767 0.075653717 -0.0087191444 -0.078057669 0.021131029 0.023017617 0.17266917 0.020522768 0.082517311 -0.19610845 -0.14187606 -0.067429855 -0.027239565 -0.12763667 0.055756748 -0.018012634 -0.047542505 -0.075531371 0.15371062 -0.056171685 -0.20540525 0.0014103042 -0.0034604119 -0.061669428 -0.14436644 -0.013283036 0.03539928 -0.016453147 0.051131368 0.00068068027 -0.083420336 -0.029086133 0.022768732 0.0245157 0.043811526 -0.052190501 -0.16697223 0.0080105923 -0.17701849 -0.061790112 0.27936524 -0.080921493 0.016951451 -0.077202804 -0.1344699 0.0041199313 0.13814339 0.10995875 -0.077632785 -0.079239309 0.18611467 -0.14617281 0.052876808 0.038377266 -0.10789044 -0.21768871 0.029338231 -0.19745989 -0.065505318 0.057848163 0.11839636 0.26451913 0.046031501 -0.039225079 -0.016143246 -0.002059059 -0.091623858 0.062842555 0.038976997 -0.026860218 0.043565776 -0.05442458 0.18841074 0.016342416 0.022802742 -0.08470919 -0.18522203 -0.036409788 -0.21037282 0.044505902 0.15088651 -0.10897209 0.076009884
4 -0.070463948 -0.17504424 0.057725403 -0.013184801 -0.00067049125 -0.12036952 0.12240455 -0.047064021 -0.041035466 0.035107344 -0.084797494 0.086760491 0.027796598 -0.15251589 -0.044573378 -0.16612649 0.032653261 -0.15341936 -7.6011769e-05 0.064019091 0.20186448 0.075379439 0.13659079 0.12659451 -0.017248278 -0.052472651 -0.04914723 0.070784941 -0.0031660062 0.17744923 -0.014314436 0.047496013 -0.1200415 0.059075348 -0.1741925 -0.13461426 0.17254934 0.11740041 -0.033460677 -0.08891122 -0.19768615 0.051623482 0.030264769 0.11537347 -0.12035134 0.13992454 0.078686021 -0.0039487816 -0.040371783 0.044850722 -0.033445891 0.13968927 0.0079566976 0.11592689 -0.19852567 -0.12281559 -0.048382677 0.022496689 -0.10658489 0.034687396 0.01943313 -0.082141198 -0.042549711 0.14156562 -0.098663993 -0.12419954 0.0014864809 0.017430166 -0.062717609 -0.17513734 -0.054158539 0.034813821 -0.016725397 0.016682176 0.086392611 -0.055415314 0.0078429738 -0.010903323 0.024345867 -0.049343374 -0.074717157 -0.13682514 -0.0092575802 -0.13401477 -0.10694464 0.20474562 -0.0096009122 -0.011619703 -0.013389238 -0.11919625 0.025433069 0.10309459 0.12746279 -0.082492687 -0.1388166 0.19096979 -0.12346907 -0.025704283 0.074684724 -0.045200542 -0.20623644 0.030697681 -0.18769912 -0.043771345 0.022241667 0.096997656 0.2537533 0.068095312 -0.051862191 -0.035965942 -0.018621188 -0.052206546 0.082285143 0.050236162 -0.069876969 0.05175006 -0.04541111 0.19791149 -0.02532614 -0.02422164 -0.079053514 -0.15729977 -0.0012793181 -0.25109228 -0.025975768 0.11879513 -0.076162875 0.12672593
24 -0.10425431 -0.12736446 0.076178774 0.01752493 0.033791423 -0.066625379 0.14345402 -0.12105151 -0.134094 0.029223355 -0.10450315 0.010784924 0.011688127 -0.13047621 -0.11506942 -0.12312303 0.066558249 -0.07895612 0.0086541902 0.10488568 0.15999123 0.097933866 0.12309833 0.11173242 -0.090296097 -0.080176182 -0.044624262 0.052777357 -0.051153343 0.17772292 -0.011958097 0.058842707 -0.095846638 0.072794385 -0.19833563 -0.099410698 0.22114711 0.14960681 -0.040970974 -0.088014044 -0.22636105 0.12703761 0.014377434 0.051975325 -0.075864837 0.11901762 0.065726325 -0.01304179 -0.096504539 0.014002527 0.051605821 0.18467724 0.02322647 0.08036162 -0.19758227 -0.14734642 -0.071656659 -0.043690894 -0.14126144 0.064901851 -0.031640708 -0.035867888 -0.086674765 0.15547901 -0.038474623 -0.24330926 -0.00063997146 -0.012114272 -0.064840667 -0.13214311 0.0068503893 0.035748884 -0.018366713 0.063516855 -0.024912396 -0.10340898 -0.041902427 0.032131996 0.024944164 0.08611843 -0.041634925 -0.18605486 0.008030002 -0.20099847 -0.048798602 0.31362125 -0.11120026 0.027673338 -0.10298524 -0.13854906 -0.0082772663 0.15407434 0.10345046 -0.0859413 -0.066230297 0.20064767 -0.16396372 0.085214876 0.032323152 -0.13345414 -0.23847266 0.03872323 -0.19738951 -0.069777861 0.066899486 0.1310852 0.28324491 0.048701297 -0.034121886 -0.014538308 0.0092995986 -0.11290137 0.05412703 0.034541905 -0.020889996 0.037517592 -0.062287021 0.18877615 0.026544295 0.044559453 -0.087446176 -0.20590396 -0.049687393 -0.21451573 0.070862293 0.18026353 -0.11505122 0.063394368
14 -0.071647711 -0.18364699 0.059108216 -0.015339806 -0.00051532424 -0.11359849 0.12856251 -0.052625202 -0.043669421 0.041002437 -0.096428894 0.088322721 0.021866651 -0.15236206 -0.045333203 -0.16342667 0.035569075 -0.1514626 -0.0034155697 0.061419636 0.20527732 0.079416342 0.14252245 0.1301204 -0.019851221 -0.054979928 -0.043612085 0.069265783 -0.013145502 0.17995912 -0.0098128272 0.051286094 -0.11965878 0.061902184 -0.17235906 -0.13344148 0.1692179 0.11439866 -0.038374275 -0.093733832 -0.20441321 0.060925148 0.031162245 0.11178909 -0.11964823 0.14175029 0.082710214 0.00018751905 -0.036333282 0.051451188 -0.033858016 0.14543946 0.0080181332 0.11489973 -0.19482882 -0.12385791 -0.055577751 0.023940697 -0.10634072 0.035146028 0.015191487 -0.082942992 -0.043421723 0.13764803 -0.099852078 -0.13015102 0.0079431999 0.01332268 -0.06267333 -0.17623135 -0.054362252 0.03528522 -0.021469833 0.025748292 0.083014011 -0.052924134 0.00682035 -0.011766614 0.025078746 -0.051413476 -0.079318173 -0.13373289 -0.0044015688 -0.13265283 -0.1114813 0.21295144 -0.018771155 -0.0075995326 -0.017995087 -0.12024067 0.028862199 0.10509028 0.13018914 -0.080203414 -0.13737237 0.19737685 -0.12173698 -0.019333433 0.076103553 -0.048874829 -0.20490795 0.030885648 -0.19023618 -0.049302969 0.021526389 0.095141031 0.25769132 0.067780614 -0.053962819 -0.032977555 -0.024095107 -0.054225478 0.076086283 0.048430257 -0.062421143 0.047403753 -0.04731369 0.19397393 -0.026253434 -0.01937151 -0.081804134 -0.15758665 0.0023559737 -0.24591704 -0.016441531 0.1154002 -0.079900376 0.12217345
6 -0.019756209 -0.29355466 0.032171063 -0.047125872 -0.066061243 -0.2110413 0.13291602 0.053248487 0.11234454 0.062901132 -0.076503344 0.22018996 0.050990347 -0.20961238 0.061739333 -0.25658593 -0.018512819 -0.30338421 -0.026247341 0.0050895982 0.30397722 0.041253105 0.19379708 0.17714344 0.10470069 -0.034175761 -0.062783852 0.08189968 0.048586473 0.21082537 -0.012471578 0.043011941 -0.17108886 0.030579221 -0.17102276 -0.20725235 0.1280902 0.086278662 -0.045094166 -0.13135873 -0.19415213 -0.023591135 0.058059689 0.21409814 -0.21688934 0.20714796 0.12160443 0.024425352 0.060466073 0.11483662 -0.17038921 0.12185171 -0.021561472 0.18601109 -0.21613567 -0.10694896 -0.023565318 0.12335563 -0.054444101 -0.0082532382 0.099870183 -0.16178511 0.023876632 0.13987821 -0.21880302 0.019920617 0.0050125886 0.069175713 -0.071700417 -0.26817727 -0.15303285 0.034616757 -0.035323426 -0.037476301 0.2636514 0.014098791 0.069913469 -0.084095024 0.027048957 -0.27018955 -0.14240699 -0.053449001 -0.022314576 -0.038078435 -0.22124021 0.054865319 0.13174073 -0.059523676 0.11351337 -0.10374172 0.089717045 0.043235537 0.20088381 -0.073313266 -0.25757468 0.215193 -0.049675986 -0.19943976 0.1507073 0.079119198 -0.16841684 0.033310156 -0.2059236 -0.024592675 -0.046982847 0.047239594 0.24249828 0.099664293 -0.073096834 -0.057413105 -0.064105995 0.041159149 0.12614538 0.071509793 -0.15572999 0.073388904 -0.021014269 0.22476009 -0.10326102 -0.12816049 -0.0784375 -0.10014549 0.09648332 -0.33798593 -0.17214511 0.040055443 -0.030847518 0.24149859
28 -0.090868026 -0.18491045 0.068400517 -0.0030394329 0.006209142 -0.10882063 0.14696828 -0.077529758 -0.072397701 0.038924769 -0.10071577 0.075087234 0.020584084 -0.15448761 -0.070680484 -0.16508251 0.044957992 -0.14599022 0.00060349383 0.083337598 0.20280251 0.085695907 0.14570192 0.13049906 -0.041011479 -0.068350352 -0.053228132 0.068003155 -0.019646548 0.19054636 -0.01163651 0.060060434 -0.11919388 0.07165049 -0.2009314 -0.13976669 0.20677486 0.14244646 -0.04119122 -0.099287771 -0.22803399 0.08220952 0.029566761 0.10377992 -0.12347455 0.14476849 0.082108311 -0.0065774182 -0.062747434 0.042748328 -0.017561952 0.17514275 0.018734835 0.10889488 -0.21441656 -0.14691682 -0.067684278 -0.00065741222 -0.12768172 0.047670029 0.0048541077 -0.07838463 -0.057746407 0.16229147 -0.088389322 -0.17808054 0.0029803829 0.011593495 -0.069910973 -0.18372895 -0.042254347 0.039066944 -0.024555065 0.032717638 0.056636635 -0.071745276 -0.0089449501 0.0042802677 0.024384893 -0.012306005 -0.074279405 -0.16429673 -0.00081651739 -0.1661143 -0.10233399 0.26259339 -0.043476336 0.0047290386 -0.045764048 -0.13454664 0.023022134 0.12806128 0.13107735 -0.088729687 -0.12354416 0.207737 -0.14319979 0.0074351267 0.068317108 -0.079103865 -0.23241954 0.03827684 -0.21663071 -0.063524887 0.040810045 0.11286561 0.28619352 0.066139705 -0.046840411 -0.034205873 -0.014279025 -0.070946805 0.075295188 0.046078321 -0.057796068 0.048961461 -0.057200663 0.20999205 -0.012406012 -0.0076666661 -0.089626305 -0.18383014 -0.010133668 -0.25391638 -0.0007544189 0.14077318 -0.095749915 0.11773004
30 -0.10226811 -0.13220446 0.067157984 0.021219844 0.02996707 -0.060327172 0.14792703 -0.12453445 -0.137934 0.030675765 -0.1136101 0.010187593 0.0049696914 -0.12694432 -0.11755739 -0.12407267 0.06804084 -0.073781595 0.0022940813 0.11255933 0.15729642 0.094428614 0.12737595 0.099517189 -0.092322007 -0.086361289 -0.041400891 0.053831965 -0.057020452 0.17499278 -0.010165582 0.056147803 -0.090968028 0.071914665 -0.19948448 -0.0917155 0.21818689 0.15575323 -0.038466319 -0.085734941 -0.22241612 0.12957481 0.015581711 0.049251594 -0.067657217 0.11207933 0.06662707 -0.023340836 -0.10264599 0.015872058 0.052684307 0.1876462 0.03131843 0.069799051 -0.19555211 -0.15053371 -0.082884736 -0.045713462 -0.13188927 0.065515019 -0.032828886 -0.036539126 -0.086887658 0.15545963 -0.021422891 -0.24869898 -0.0021789072 -0.017040895 -0.056413889 -0.13238434 0.012199364 0.033428833 -0.011653229 0.060646374 -0.033243697 -0.10725353 -0.037180074 0.041549392 0.02405897 0.096473232 -0.045562316 -0.19318907 0.0013807358 -0.20943189 -0.04535101 0.32278997 -0.11305285 0.028826781 -0.11317597 -0.13359582 -0.0056039426 0.1472974 0.096549824 -0.079172499 -0.059819899 0.19339141 -0.16826594 0.091677628 0.030220201 -0.13954824 -0.22716153 0.035337761 -0.19696566 -0.081085764 0.068678491 0.12235586 0.27744421 0.042273924 -0.040114108 -0.017748957 0.0056253839 -0.11531356 0.046050292 0.024942314 -0.0076344949 0.036604047 -0.066590525 0.18686154 0.020724621 0.053651862 -0.092412658 -0.19986646 -0.049338534 -0.2029341 0.074103184 0.18087789 -0.10845213 0.057114154
7 -0.014423462 -0.30277506 0.027004318 -0.054561786 -0.074909031 -0.21704225 0.13371547 0.058951952 0.1279389 0.064477064 -0.08127217 0.23113325 0.054823566 -0.21576665 0.069569074 -0.26364663 -0.018359104 -0.31468832 -0.032289971 0.0031020837 0.31659982 0.038485121 0.20127828 0.18881434 0.11544663 -0.035364885 -0.069104508 0.085530497 0.048247859 0.20940273 -0.0092779538 0.049549393 -0.17693327 0.023911264 -0.17388034 -0.21140787 0.1185642 0.076482557 -0.043023296 -0.13243467 -0.20002708 -0.028096512 0.058018103 0.22585715 -0.22093317 0.21468809 0.12604707 0.030176893 0.068494581 0.11977438 -0.1824732 0.12250034 -0.020033153 0.19490379 -0.22435252 -0.10148943 -0.021689203 0.12974805 -0.050341547 -0.0026770295 0.1032536 -0.17010981 0.029635893 0.14233257 -0.2287596 0.03606518 0.0098482948 0.076478034 -0.069786265 -0.27410591 -0.16384467 0.036686096 -0.03812784 -0.042470802 0.27374765 0.02062754 0.071995735 -0.09104827 0.02839385 -0.29099825 -0.14361006 -0.045593623 -0.025186609 -0.027047658 -0.23399709 0.043323927 0.13610423 -0.060995925 0.12127939 -0.09990409 0.094076492 0.036878258 0.20713006 -0.074587658 -0.26629621 0.21841429 -0.041643996 -0.21190442 0.15091611 0.090065934 -0.1690218 0.037350208 -0.21074221 -0.024444185 -0.05036021 0.037880331 0.23957038 0.097622208 -0.07231994 -0.056023307 -0.06950523 0.050782915 0.12764305 0.06795752 -0.16476052 0.071328856 -0.019580932 0.22569796 -0.1128915 -0.13130353 -0.081191994 -0.089482985 0.10421532 -0.34027997 -0.18311566 0.030923354 -0.028699707 0.2559981
8 -0.06920661 -0.20153844 0.058731236 -0.016131444 -0.010827977 -0.12847582 0.13614643 -0.044908017 -0.029686948 0.04440324 -0.094712466 0.10176785 0.025717052 -0.16310896 -0.035070859 -0.18290196 0.031940382 -0.17123763 -0.0010844775 0.063686296 0.21926613 0.075379118 0.15073974 0.13572562 -0.0076567116 -0.052526049 -0.050764114 0.072971135 -0.0063380226 0.18996394 -0.01343969 0.052685715 -0.12826294 0.061452381 -0.18609099 -0.14787978 0.179728 0.11820972 -0.035328243 -0.098299712 -0.21120773 0.05442398 0.028811196 0.1272583 -0.1331773 0.15866499 0.08458592 0.0011064511 -0.032639995 0.058400523 -0.050304208 0.14970066 0.010115774 0.12794679 -0.21257116 -0.12940535 -0.054674864 0.02903395 -0.10972863 0.03314526 0.022288902 -0.095231198 -0.039786637 0.14976598 -0.11449607 -0.12773389 0.0084062293 0.020100433 -0.066699907 -0.19390798 -0.067742728 0.033382405 -0.023784325 0.017329276 0.10113299 -0.050638936 0.0081747435 -0.019386241 0.027231438 -0.07247185 -0.084730722 -0.13715187 -0.010566301 -0.13368779 -0.12866114 0.21024817 -0.0023736046 -0.012626516 -0.0074377027 -0.12881601 0.03713727 0.10318493 0.14486521 -0.084297851 -0.15573353 0.20270355 -0.12206298 -0.041805781 0.082771763 -0.041911647 -0.21033873 0.030565431 -0.20793231 -0.051290005 0.023657406 0.092288487 0.27100697 0.068074614 -0.055540238 -0.039018735 -0.030794615 -0.045749601 0.089679249 0.051286489 -0.083609141 0.05646462 -0.047129907 0.20835586 -0.034757584 -0.032839049 -0.088009961 -0.16503881 0.013176748 -0.26820198 -0.032633014 0.11465794 -0.078676187 0.13864358
9 -0.086090654 -0.16078839 0.058689594 0.00029118886 0.0099861538 -0.095362484 0.13661407 -0.078497916 -0.072297432 0.034379862 -0.097088642 0.061553229 0.017808205 -0.14414066 -0.075441517 -0.14739113 0.0432273 -0.11793415 -0.0026094723 0.083904676 0.17926443 0.0841095 0.13934503 0.11354294 -0.047802895 -0.065653808 -0.047044445 0.055173438 -0.028816201 0.17603555 -0.0075950748 0.058663346 -0.11110439 0.06146821 -0.18378472 -0.12031136 0.19688475 0.13403592 -0.042266034 -0.087075986 -0.21830952 0.086419262 0.026070932 0.088314004 -0.10677727 0.12939562 0.079539947 -0.011696517 -0.065017976 0.032031979 -0.0038005284 0.16786021 0.015426964 0.098726146 -0.19688168 -0.13876784 -0.065972626 -0.0067244577 -0.11992846 0.047174893 -0.0030170996 -0.064929314 -0.065674335 0.15265033 -0.069339342 -0.18073162 0.0054235179 0.002456517 -0.0636774 -0.15799519 -0.025352519 0.035975002 -0.013932919 0.037061285 0.039329186 -0.076319672 -0.015684657 0.012758954 0.021346264 0.0092120562 -0.060159203 -0.15686953 -0.0059602363 -0.16983187 -0.086654648 0.25361806 -0.05446741 0.0082734041 -0.058459859 -0.12452842 0.015728729 0.12341055 0.12307353 -0.073665529 -0.10662404 0.18891019 -0.13391957 0.022107063 0.055124849 -0.080083318 -0.21774894 0.030318094 -0.19966574 -0.060988333 0.041991446 0.10441116 0.26170638 0.058731172 -0.047613651 -0.029140234 -0.0075438339 -0.073553689 0.070676431 0.036359709 -0.044985905 0.042292066 -0.05443063 0.19733101 -0.0081126243 0.010823392 -0.087090582 -0.17683439 -0.018852072 -0.2300334 0.011657801 0.14633724 -0.094603397 0.099682018
25 -0.092835113 -0.15968014 0.061165266 0.00084037951 0.0086208675 -0.094870798 0.1363094 -0.091389857 -0.080561824 0.032227494 -0.099205725 0.048537318 0.016629713 -0.13623187 -0.080743551 -0.14614387 0.052712336 -0.12019163 0.0034772484 0.090779655 0.18644133 0.083124831 0.13518666 0.12354457 -0.051909711 -0.074813671 -0.046031781 0.057547163 -0.035244837 0.17890644 -0.0066904603 0.05527309 -0.10423008 0.062268157 -0.19825107 -0.11718743 0.19585371 0.14147709 -0.043999642 -0.093996629 -0.22324486 0.095472962 0.018214449 0.077527486 -0.10055419 0.13947007 0.079794474 -0.0026566195 -0.06532947 0.033059716 -0.00048673851 0.17380226 0.021318916 0.095758542 -0.20727107 -0.14187135 -0.060341507 -0.016953846 -0.12727311 0.056561325 -0.0083757313 -0.05923596 -0.061614506 0.15241851 -0.075838827 -0.18969005 0.0022420336 0.0039122584 -0.068857014 -0.15680678 -0.026143298 0.031883385 -0.017945983 0.046466913 0.028821798 -0.081312329 -0.023814706 0.013144369 0.028313855 0.012028957 -0.060752396 -0.1628051 0.0014486113 -0.17194819 -0.081622779 0.26333317 -0.063428648 0.0042713997 -0.064985387 -0.1379685 0.0092246225 0.12935406 0.12456284 -0.083920605 -0.10285775 0.19817109 -0.14202048 0.029289102 0.055025328 -0.086626634 -0.2254817 0.035080697 -0.20527537 -0.058517251 0.048821881 0.10892598 0.26987419 0.057535924 -0.036594361 -0.025110107 -0.011766926 -0.080115348 0.070159934 0.037134767 -0.048541017 0.043379597 -0.050287753 0.19276676 0.0010917169 0.0059101232 -0.083069868 -0.17547104 -0.024357747 -0.23345058 0.020807138 0.15080738 -0.10535569 0.092705593
26 -0.094242327 -0.13524026 0.066907324 0.0074726059 0.023608509 -0.078130685 0.13993613 -0.10911167 -0.11637823 0.027947439 -0.1029836 0.02384557 0.016258806 -0.13245265 -0.099875212 -0.12390089 0.061668176 -0.092819124 0.003897486 0.10000499 0.16931863 0.089488767 0.12701495 0.11235987 -0.076376617 -0.078877881 -0.048755661 0.052966796 -0.044263378 0.17729948 -0.0047096484 0.057298124 -0.091063336 0.064969607 -0.19768929 -0.10701741 0.20581159 0.1414395 -0.041503988 -0.088255592 -0.21972044 0.10415249 0.010755247 0.059032407 -0.086647704 0.1267961 0.064997092 -0.01085698 -0.084933236 0.025299726 0.029951457 0.17674604 0.022237225 0.076502375 -0.19681261 -0.14301372 -0.065998532 -0.031062948 -0.13594913 0.060205728 -0.018099597 -0.047417451 -0.074288107 0.15495467 -0.048973881 -0.21315408 0.0020817998 -0.01079861 -0.061674256 -0.13855772 -0.0083413403 0.034170859 -0.020085933 0.053249568 -0.00025240006 -0.091549709 -0.036492769 0.026240597 0.025060277 0.052041221 -0.053794429 -0.17050028 0.0071434984 -0.18221745 -0.056171179 0.2901679 -0.09240371 0.01604085 -0.085017942 -0.13522513 0.0026088033 0.13860713 0.11025093 -0.076731734 -0.074226275 0.18748364 -0.15324414 0.06316492 0.042817939 -0.11395907 -0.22203574 0.032803781 -0.19573273 -0.06096435 0.061950125 0.12093131 0.27348483 0.051011987 -0.03068959 -0.014800327 -0.0048784064 -0.098312952 0.058881544 0.037974026 -0.026533557 0.038878594 -0.056432895 0.18162273 0.019605402 0.022266112 -0.085275687 -0.19161402 -0.041581489 -0.21906886 0.050058514 0.16467427 -0.1103766 0.067590564
31 -0.080472641 -0.17954779 0.065170273 -0.0024497856 0.0036488278 -0.1149984 0.14033996 -0.075989582 -0.070862874 0.039798819 -0.098732226 0.077520177 0.025990393 -0.15989797 -0.064723648 -0.17066388 0.038169108 -0.14004995 0.001130987 0.079924114 0.20552392 0.082373679 0.14519794 0.13258401 -0.036254752 -0.065599799 -0.04611779 0.069572523 -0.020386185 0.1889417 -0.013509792 0.059065871 -0.12832473 0.069945693 -0.19483897 -0.13202703 0.19899862 0.13598767 -0.037367675 -0.10314083 -0.2190894 0.084098384 0.027408691 0.10147218 -0.1190645 0.14667848 0.080123104 -0.0094011799 -0.057479218 0.045779005 -0.020294555 0.17226279 0.015825029 0.11206529 -0.21374056 -0.14410229 -0.060304366 0.0032298057 -0.12538283 0.043338131 0.0086291851 -0.077028707 -0.061589312 0.15473057 -0.091626354 -0.17295049 -0.0012093041 0.0075130407 -0.067114577 -0.1779163 -0.042093419 0.0343339 -0.01945067 0.032380555 0.063059546 -0.071039669 -0.0021117395 0.00065635855 0.031740811 -0.014890525 -0.074145354 -0.16047193 -0.0081338361 -0.16867384 -0.10127789 0.25344098 -0.043012112 -0.0014704051 -0.043896716 -0.13388692 0.019102857 0.1252211 0.13512428 -0.087956943 -0.13110588 0.20535581 -0.14326993 0.0021321129 0.067296721 -0.070700251 -0.22967806 0.035577863 -0.20782848 -0.064466655 0.035056062 0.10721793 0.2787658 0.065924548 -0.046863381 -0.032405902 -0.018687222 -0.072838411 0.074677944 0.042567689 -0.059005652 0.050941315 -0.057688694 0.21118377 -0.019225676 -0.0034719091 -0.092779882 -0.18206839 -0.01067536 -0.25906229 -0.00029539422 0.14469156 -0.095958546 0.11661055
20 -0.060390245 -0.20878293 0.049670167 -0.017696867 -0.019808499 -0.14173764 0.13413036 -0.027875379 -0.0094839409 0.042498741 -0.09003415 0.11324143 0.034022938 -0.16541632 -0.023114841 -0.18571891 0.018485079 -0.1822796 -0.010467821 0.049168322 0.22753562 0.06579785 0.15645926 0.13896811 0.0090647135 -0.049774729 -0.047043476 0.067533627 0.0035424763 0.1811806 -0.014141963 0.048916776 -0.13160574 0.052269533 -0.17619969 -0.14907965 0.16979769 0.10959623 -0.042552579 -0.10654265 -0.20442364 0.042050492 0.032769665 0.13318145 -0.14130487 0.15812162 0.093617685 0.0051444895 -0.016872663 0.05996177 -0.068213657 0.14653739 0.0062895836 0.12664309 -0.20627508 -0.12243393 -0.046175119 0.038918387 -0.098483466 0.03066056 0.038231425 -0.098724209 -0.029185139 0.14620189 -0.1267924 -0.10298043 0.0051259231 0.030089255 -0.065968506 -0.19304511 -0.076911248 0.036136035 -0.025131114 0.0085312491 0.11974725 -0.037534133 0.019188456 -0.027573025 0.028143575 -0.093428701 -0.089910716 -0.12156244 -0.011412622 -0.12110221 -0.13314079 0.18273303 0.011451447 -0.016092988 0.0059784097 -0.11391305 0.045117456 0.091593757 0.14623442 -0.079650179 -0.15845466 0.19637999 -0.10327058 -0.061743889 0.087302141 -0.018165257 -0.20082641 0.029813508 -0.20081073 -0.04247361 0.0091480352 0.084272273 0.25164521 0.071282834 -0.050633173 -0.03555626 -0.032762613 -0.029257793 0.090228572 0.053065471 -0.089997299 0.05148514 -0.03915308 0.20609079 -0.04181226 -0.04398147 -0.082486488 -0.14168978 0.024117155 -0.26930922 -0.050759979 0.1036693 -0.073525801 0.15158421
11 -0.028470881 -0.26870033 0.034592621 -0.041103799 -0.055055302 -0.19270259 0.12168882 0.039558943 0.090529472 0.05328967 -0.075548224 0.19423179 0.04428675 -0.18780424 0.047960792 -0.23592514 -0.012268499 -0.26766098 -0.023238212 0.0098240292 0.27997795 0.043184102 0.18134567 0.16545011 0.082367651 -0.034801967 -0.059416577 0.079414077 0.036129247 0.1897933 -0.01021372 0.042717222 -0.15690356 0.029667474 -0.16365279 -0.18380944 0.13186081 0.085609645 -0.039532959 -0.11497348 -0.18427055 -0.010362943 0.052977402 0.19464202 -0.19444768 0.19412875 0.1136231 0.026037052 0.040067121 0.10124645 -0.1454616 0.11985194 -0.013491175 0.16919355 -0.21005476 -0.10640945 -0.024942584 0.10913928 -0.066795893 0.0033117589 0.082534567 -0.14977151 0.018488634 0.1382338 -0.19892418 0.0044297343 0.0033141337 0.05920399 -0.062921777 -0.24460915 -0.13535032 0.034064393 -0.033879954 -0.031740479 0.23094827 0.0080745704 0.059319481 -0.076482564 0.024659017 -0.23198296 -0.1229177 -0.059013452 -0.022615962 -0.04856072 -0.20291886 0.075371854 0.10803055 -0.048549343 0.093780316 -0.10018809 0.073906697 0.043667752 0.18200663 -0.070143603 -0.22686726 0.19776338 -0.054489959 -0.16700582 0.13008033 0.06508781 -0.16439308 0.036144622 -0.1973882 -0.025593145 -0.035997543 0.047251485 0.23538633 0.085075736 -0.064611636 -0.052825265 -0.0606874 0.029458648 0.11135679 0.061358739 -0.13947213 0.061975162 -0.027364802 0.21506234 -0.090269715 -0.11214868 -0.075523585 -0.10363579 0.082470603 -0.3122229 -0.14321055 0.042829406 -0.04231419 0.21937932
29 -0.08248052 -0.17258446 0.056700274 -0.0060132751 0.0051601334 -0.10989173 0.1360538 -0.074156389 -0.062003672 0.037613653 -0.094099484 0.07414525 0.018988665 -0.14904681 -0.063133195 -0.15839972 0.03753886 -0.13955718 0.00059143716 0.076062307 0.19757083 0.07795801 0.13692756 0.12364885 -0.038307011 -0.067557968 -0.046274357 0.059573367 -0.018064987 0.18101925 -0.0061440081 0.052115668 -0.11217216 0.061804861 -0.19084038 -0.12581757 0.19390783 0.13235743 -0.038487934 -0.098059237 -0.21067691 0.080888033 0.021587342 0.093273975 -0.11277468 0.1451876 0.081341304 -0.0050592786 -0.055076465 0.041478135 -0.017893532 0.16243699 0.012825762 0.10513818 -0.20864987 -0.13178307 -0.054375678 0.0061513609 -0.11709493 0.047851562 0.0067426628 -0.076030642 -0.058204237 0.15291172 -0.090568602 -0.16477017 -0.00033666845 0.0068773199 -0.061155155 -0.16496885 -0.042408861 0.033894472 -0.02338477 0.035653971 0.058698427 -0.063145727 -0.0050980318 0.0012728932 0.027676562 -0.017366853 -0.074463516 -0.14602475 -0.0017590759 -0.15938047 -0.095717825 0.24034078 -0.037560754 -0.0026825105 -0.041240498 -0.13108647 0.022427632 0.11507802 0.12698317 -0.077890232 -0.11505595 0.19779241 -0.13418317 0.0061019994 0.063521326 -0.070841253 -0.21741645 0.035220671 -0.20162341 -0.055000372 0.036895603 0.1029549 0.26326603 0.057676826 -0.04407645 -0.027472727 -0.013549994 -0.065023012 0.071801901 0.041889038 -0.060481768 0.043415245 -0.051494669 0.19524808 -0.0088791251 -0.007006458 -0.086848266 -0.17204273 -0.011772354 -0.24639042 0.0029859359 0.13825884 -0.094302252 0.10799058
5 -0.031167591 -0.27900603 0.034114067 -0.042028762 -0.052230634 -0.19756345 0.13778204 0.026299942 0.086567894 0.055932987 -0.079889245 0.19932647 0.04524703 -0.19926518 0.039623175 -0.24554051 -0.0082543436 -0.27853987 -0.024771839 0.023243001 0.29240873 0.053476088 0.18561937 0.17826702 0.080966704 -0.040932063 -0.063347451 0.07854417 0.033688691 0.20439342 -0.014742246 0.047813062 -0.16731593 0.037903477 -0.17615798 -0.1987076 0.14103356 0.094005816 -0.043699 -0.12321141 -0.19656107 -0.0071278145 0.047854561 0.19647878 -0.20029534 0.1974265 0.11469731 0.022241468 0.038149979 0.09903574 -0.14525184 0.13229699 -0.0097267954 0.16987827 -0.21562272 -0.11392414 -0.027777152 0.10282502 -0.065726012 0.00041316976 0.079212271 -0.15128905 0.013029561 0.14570686 -0.20207536 -0.010902331 0.011528535 0.058805048 -0.069043651 -0.25389728 -0.13778545 0.036249146 -0.034047864 -0.030252948 0.22798337 -0.0038550792 0.052182008 -0.075714476 0.025367193 -0.23301736 -0.12976393 -0.073150285 -0.021751964 -0.06035579 -0.20710917 0.089019127 0.10109032 -0.043862611 0.088379458 -0.11065239 0.07800924 0.057060417 0.19290833 -0.07682614 -0.23999588 0.21641968 -0.067899622 -0.16492695 0.13809325 0.058847558 -0.18508796 0.035462305 -0.21022785 -0.034851242 -0.03437772 0.053648863 0.25041661 0.090697534 -0.071861476 -0.05205946 -0.062149055 0.021073205 0.12111679 0.062285636 -0.14290933 0.070660256 -0.023126772 0.22582504 -0.085489303 -0.1058158 -0.080713637 -0.10981587 0.077380478 -0.32392788 -0.1441146 0.057601612 -0.048167247 0.22644784
17 -0.035770435 -0.26532897 0.03876603 -0.036839686 -0.054235112 -0.18876012 0.13428453 0.023873933 0.075677872 0.059528641 -0.081247151 0.18854727 0.0462115 -0.18963736 0.027964948 -0.22888741 -0.0027654467 -0.26522446 -0.024235785 0.026513426 0.2788859 0.047246609 0.18408741 0.16483316 0.072501495 -0.037776798 -0.06171982 0.080019623 0.032506697 0.20180854 -0.010927401 0.048804749 -0.15332727 0.036514554 -0.1773029 -0.18862814 0.14033924 0.093705557 -0.041236714 -0.1171307 -0.19794048 -0.003485901 0.044550717 0.18752149 -0.18877979 0.18747786 0.11074856 0.023409495 0.030635566 0.096659124 -0.13598008 0.12619151 -0.0096911797 0.16099767 -0.2113692 -0.11101148 -0.0354468 0.099490702 -0.066651762 0.0049219495 0.075267717 -0.14280841 0.0076921391 0.13740963 -0.18643823 -0.016792385 0.0069709839 0.054259211 -0.067421094 -0.23668911 -0.12976758 0.032913428 -0.028698394 -0.024639323 0.21105473 0.00054526713 0.048159353 -0.069059998 0.029075366 -0.21469042 -0.11893231 -0.075842261 -0.014974956 -0.06094116 -0.19586127 0.098829649 0.090795517 -0.046475094 0.080976389 -0.1098519 0.066944443 0.058991864 0.1802872 -0.072491825 -0.22331741 0.20745823 -0.063367754 -0.14556095 0.12852383 0.048872471 -0.17472158 0.033425342 -0.20339054 -0.030041428 -0.024419904 0.053628109 0.24305582 0.082991488 -0.067890957 -0.044432152 -0.056291196 0.015851216 0.11594823 0.061690867 -0.13072877 0.062907211 -0.027943099 0.21850912 -0.082799911 -0.1018685 -0.075244479 -0.10736865 0.070937969 -0.3029274 -0.13114613 0.056043569 -0.048390143 0.21174306
23 -0.085375465 -0.16076989 0.058448408 0.00056290621 0.0097023007 -0.094699323 0.13658738 -0.07533671 -0.07362055 0.033295557 -0.098907396 0.05948231 0.017957779 -0.14438953 -0.073977828 -0.14624833 0.044650774 -0.12045608 0.0013942122 0.08294259 0.18403324 0.080816858 0.13168848 0.12090409 -0.044917796 -0.068392076 -0.048211299 0.057317693 -0.029033547 0.17607027 -0.010874605 0.055258881 -0.10959386 0.064876765 -0.18985856 -0.12199789 0.19397244 0.12917309 -0.041289933 -0.090567097 -0.21197993 0.086832985 0.025728745 0.08721184 -0.10116491 0.12948832 0.075520448 -0.00481273 -0.063317202 0.036231928 -0.0020427634 0.16308609 0.020060727 0.096143581 -0.20092657 -0.14020006 -0.064480752 -0.0052970732 -0.1182723 0.044800196 -0.00098041305 -0.065896295 -0.059934415 0.14845078 -0.070898496 -0.17585872 0.0052993307 0.0070900791 -0.060457215 -0.15596378 -0.028949881 0.032283373 -0.01352987 0.03786369 0.035468355 -0.071764827 -0.0090351775 0.0070660654 0.028986415 0.0040215296 -0.060152318 -0.15694003 0.0010668699 -0.16415343 -0.087423742 0.25332794 -0.054007363 0.006671418 -0.054982774 -0.12795845 0.016692648 0.12460964 0.11559933 -0.079216726 -0.11207059 0.1902146 -0.13452788 0.016319074 0.055638447 -0.076092586 -0.21478014 0.031096896 -0.19209035 -0.063873067 0.040412087 0.099172622 0.25694156 0.052993026 -0.040877976 -0.024727715 -0.014305722 -0.074228786 0.066793688 0.037306566 -0.049239825 0.044401292 -0.053954564 0.19630173 -0.0066445405 0.0038819583 -0.08245153 -0.16977051 -0.018108139 -0.23140708 0.015260125 0.13642611 -0.092727639 0.098111704
19 -0.090708673 -0.14207546 0.069135569 0.0062158615 0.020134954 -0.076033413 0.13685466 -0.10294212 -0.10381053 0.030240418 -0.10419895 0.034059405 0.011215645 -0.12944317 -0.095313206 -0.12938142 0.052676447 -0.097564973 0.006558856 0.096813753 0.16650383 0.08382602 0.1258574 0.11193185 -0.06839627 -0.070822574 -0.044396024 0.05506536 -0.041517749 0.16914771 -0.0090854773 0.056921542 -0.096957035 0.063428491 -0.19034205 -0.10476599 0.19892935 0.14154118 -0.036753815 -0.085085958 -0.21605492 0.10477435 0.018113997 0.063397735 -0.081141949 0.12285745 0.073638856 -0.01549476 -0.081258379 0.025806541 0.023370804 0.1704452 0.019287359 0.082096517 -0.19163208 -0.13843445 -0.070897385 -0.026030775 -0.12439356 0.055670582 -0.018492928 -0.049718462 -0.071579792 0.15178455 -0.050650328 -0.21249898 0.0048291166 -0.0062249415 -0.06413129 -0.14429028 -0.0081720669 0.032511011 -0.014963407 0.051378325 0.0010832872 -0.091990218 -0.022875294 0.025309537 0.021739138 0.04536787 -0.052266918 -0.17041221 0.0026412981 -0.18652517 -0.065682575 0.2833963 -0.080174997 0.018025262 -0.08549995 -0.13269261 0.0019737086 0.13945545 0.11195347 -0.077274472 -0.086478405 0.19384752 -0.14966176 0.05451677 0.042429946 -0.10965424 -0.2201414 0.035595577 -0.19760807 -0.068898335 0.053918745 0.11360551 0.26349542 0.049482547 -0.03703833 -0.021325303 -0.0039102943 -0.091619588 0.058646027 0.031507581 -0.026670005 0.042657271 -0.052478097 0.19091989 0.0069093038 0.029197533 -0.086386196 -0.18544589 -0.036994163 -0.21696495 0.039811462 0.15877441 -0.10643607 0.072004654
15 -0.10867787 -0.14009386 0.072303042 0.0082769189 0.029302895 -0.0672815 0.1461651 -0.11709241 -0.12231758 0.028760115 -0.10526937 0.023327423 0.0080831433 -0.12860216 -0.1048608 -0.12795481 0.059400842 -0.088305533 0.0030138178 0.09800785 0.16545203 0.095387749 0.12478479 0.1081818 -0.085610084 -0.080063999 -0.045852356 0.055776518 -0.045640416 0.16989969 -0.010720147 0.060774606 -0.091040224 0.07282614 -0.19551805 -0.10168495 0.21156432 0.14915922 -0.035382625 -0.083739974 -0.22685251 0.11723107 0.01614821 0.055495758 -0.076529212 0.11935927 0.067186385 -0.018085513 -0.092821531 0.018457582 0.037022833 0.18113849 0.024925953 0.081252292 -0.20339918 -0.15263972 -0.079423435 -0.040844247 -0.13289444 0.064623967 -0.022327978 -0.038828973 -0.084591441 0.15152413 -0.039176583 -0.22790492 0.0029289464 -0.011766304 -0.058800735 -0.13684075 0.0020044234 0.030665746 -0.01225894 0.054774471 -0.0173913 -0.096920446 -0.028725604 0.03120259 0.021258458 0.066593856 -0.04814662 -0.18050314 0.0052433736 -0.20299964 -0.058866579 0.30288845 -0.098584816 0.017427113 -0.096169233 -0.13467677 3.0487659e-05 0.14950867 0.10752525 -0.081940427 -0.078969017 0.1963301 -0.15872148 0.075940713 0.038092554 -0.11966517 -0.22819839 0.03264416 -0.203759 -0.071693286 0.066496775 0.11802129 0.27415085 0.046438478 -0.037934713 -0.022545578 0.0036752992 -0.1021563 0.053179432 0.029643513 -0.022972193 0.044248734 -0.058485776 0.19605245 0.013145601 0.041324031 -0.085775182 -0.1985282 -0.040338863 -0.2078096 0.053341273 0.16829813 -0.10801934 0.067245707
21 -0.10138806 -0.14231946 0.068830073 0.0025534914 0.020201182 -0.079750843 0.14004791 -0.10367718 -0.10595659 0.035224851 -0.10471621 0.03400822 0.011074401 -0.13751379 -0.094227545 -0.13455281 0.057074767 -0.098336346 0.006012267 0.09344136 0.17307782 0.09153118 0.12751022 0.11444837 -0.070107244 -0.075610824 -0.041169301 0.058470391 -0.039759416 0.17180181 -0.008249105 0.056050286 -0.099801756 0.071670875 -0.19253561 -0.10959479 0.20317231 0.14467199 -0.035995807 -0.083974712 -0.22183475 0.11040895 0.017247416 0.063654713 -0.088448413 0.12178571 0.073841676 -0.012534546 -0.078257419 0.025058391 0.02896158 0.1755922 0.024906475 0.085414618 -0.20004089 -0.14208181 -0.070956267 -0.029409532 -0.13142985 0.059635106 -0.021059729 -0.048510339 -0.076939739 0.15334177 -0.047284417 -0.21439999 0.0039771535 -0.0094724782 -0.064186692 -0.15065359 -0.0055245203 0.027870908 -0.013580869 0.053019006 0.0059200753 -0.090785615 -0.026375828 0.018239746 0.026088284 0.048768207 -0.054567639 -0.17418742 0.00017098605 -0.19339111 -0.070552185 0.28616646 -0.084423296 0.015111563 -0.078819707 -0.13627332 0.0074201315 0.14240423 0.10816527 -0.07782045 -0.08966434 0.19505788 -0.15577498 0.055028133 0.045404151 -0.10946231 -0.22810714 0.03132965 -0.19999661 -0.065668687 0.059802026 0.11748394 0.26950413 0.046146419 -0.042107295 -0.024759062 0.002414051 -0.089119628 0.059905525 0.03815965 -0.032747753 0.047065783 -0.060675852 0.19617617 0.0088869035 0.03077429 -0.087411337 -0.19000581 -0.034213345 -0.22142115 0.045965336 0.16023833 -0.10094801 0.073819667
27 -0.093773983 -0.15517497 0.065891288 0.0037037118 0.022237105 -0.081985041 0.14541797 -0.096040539 -0.10692761 0.033635315 -0.10890026 0.035226915 0.012705353 -0.13478954 -0.093577497 -0.1413112 0.060828753 -0.10518513 0.0029761016 0.090763502 0.17992362 0.092202477 0.13467105 0.1194137 -0.067720935 -0.079622172 -0.049591824 0.062506467 -0.042266272 0.1793111 -0.0097569283 0.055958778 -0.10537127 0.066635154 -0.19284715 -0.11348209 0.2040998 0.1414171 -0.04168969 -0.092076071 -0.22648783 0.10802958 0.02033766 0.070958003 -0.088333182 0.12810721 0.078112215 -0.013144159 -0.078900672 0.030514095 0.025123397 0.1797024 0.020511398 0.095115997 -0.20412847 -0.1480148 -0.071589008 -0.02290073 -0.12448594 0.058759768 -0.018840156 -0.048050888 -0.07817027 0.15252432 -0.053108755 -0.21122959 0.00034912792 -0.0015940614 -0.064040169 -0.15064096 -0.015679272 0.035809606 -0.014658968 0.046053514 0.0039231465 -0.093171224 -0.021875113 0.017788008 0.02341653 0.043252997 -0.057233352 -0.17593448 0.0016555019 -0.18316364 -0.073610216 0.28781903 -0.077181585 0.014974719 -0.084177986 -0.13203448 0.0018735639 0.13628617 0.11344027 -0.082286581 -0.094284363 0.19915633 -0.15241495 0.046177659 0.04923084 -0.11116163 -0.23311971 0.035691068 -0.19807802 -0.073173217 0.056588124 0.11681643 0.27739215 0.048155379 -0.043701623 -0.01926331 -0.0009884343 -0.091865748 0.0610689 0.034885511 -0.031591963 0.041239861 -0.057471219 0.19842324 0.0026653602 0.024182472 -0.090266697 -0.18511067 -0.030174065 -0.22676401 0.037447613 0.16234462 -0.10256891 0.08189097
13 -0.053099938 -0.20737234 0.049606454 -0.02385992 -0.021171091 -0.14115199 0.12873417 -0.025766738 0.0017327415 0.047263619 -0.088230461 0.11759525 0.032955028 -0.16630116 -0.015034408 -0.18712701 0.016060228 -0.18970266 -0.012333227 0.04474343 0.22979139 0.064925522 0.15143433 0.14016508 0.0111821 -0.049646895 -0.046865683 0.0717467 0.0062398007 0.1829408 -0.013356077 0.050185315 -0.13405438 0.047842462 -0.17419349 -0.15351577 0.16367078 0.11119514 -0.038169846 -0.10267389 -0.19535674 0.038940944 0.035605624 0.13876078 -0.14522441 0.162397 0.092358626 0.0083859684 -0.014508408 0.068552375 -0.0713422 0.1423199 0.0037364045 0.13577488 -0.20549203 -0.12210458 -0.046948928 0.046424318 -0.090399906 0.023368785 0.039304722 -0.10249867 -0.02799646 0.13798283 -0.12799785 -0.092663348 0.0031434014 0.027321748 -0.059753407 -0.20039292 -0.081571266 0.031559799 -0.023168968 0.0026979442 0.13069892 -0.039432384 0.020036742 -0.033167671 0.02379531 -0.11063246 -0.092678644 -0.1137763 -0.012319851 -0.11123068 -0.14285126 0.16847655 0.024775993 -0.02061514 0.013149841 -0.11088255 0.046635032 0.085698009 0.1458949 -0.081102043 -0.16616826 0.19537729 -0.099820398 -0.071489967 0.090495728 -0.013775966 -0.18929049 0.033467662 -0.19478503 -0.043399978 0.0043361313 0.074923284 0.25255206 0.069461539 -0.05513696 -0.042162634 -0.030791832 -0.027604628 0.089852802 0.055447944 -0.093498871 0.050626118 -0.041983005 0.20560002 -0.043191694 -0.052943178 -0.079821885 -0.1385805 0.031257592 -0.26737115 -0.060260002 0.099316515 -0.066109687 0.15828234
16 -0.098852247 -0.14684957 0.06725014 0.010128232 0.021502284 -0.078506857 0.14791216 -0.10530122 -0.10847736 0.033355985 -0.10923998 0.034012001 0.009109715 -0.1305245 -0.093893185 -0.13604642 0.055279743 -0.10216736 -0.0023287642 0.093327515 0.17202604 0.091503486 0.13396651 0.11111068 -0.070245467 -0.079186372 -0.04449103 0.055201519 -0.045261357 0.17221381 -0.011522584 0.060351551 -0.098838009 0.064726688 -0.19319963 -0.10463502 0.21039404 0.14099814 -0.043844819 -0.092232049 -0.22441909 0.11599491 0.020758854 0.062324755 -0.082909614 0.1206863 0.075491019 -0.010099798 -0.085411005 0.029694919 0.030787196 0.18031003 0.024631426 0.0867249 -0.19862077 -0.14566766 -0.072976246 -0.028490804 -0.12594816 0.05533649 -0.016974956 -0.051428139 -0.07897225 0.1486275 -0.047035381 -0.21913512 0.0024144414 -0.0027574641 -0.062582657 -0.14709915 -0.0046925154 0.028833916 -0.014472542 0.050566711 0.00066646631 -0.09208972 -0.023779271 0.02161701 0.023373408 0.052963916 -0.048380822 -0.1760231 0.0050368058 -0.19019313 -0.063985772 0.29440168 -0.08621607 0.021539275 -0.084813379 -0.13198055 -0.00046212407 0.14193052 0.10566179 -0.078298405 -0.082752086 0.19829656 -0.14845788 0.056139134 0.040872667 -0.11685012 -0.22162417 0.036236666 -0.19501826 -0.072997369 0.055399161 0.11078556 0.26589015 0.045494117 -0.03475092 -0.017261595 -0.0023704167 -0.089948289 0.05345995 0.034696829 -0.025573459 0.043292359 -0.058564492 0.19356839 0.010916865 0.026906263 -0.087116189 -0.184992 -0.035933964 -0.21617223 0.049766075 0.16251148 -0.10479506 0.077579662
18 -0.063333683 -0.21160106 0.049981914 -0.019167978 -0.013363812 -0.14276038 0.13332966 -0.033984706 -0.013994275 0.048852589 -0.095598131 0.11859538 0.034745898 -0.17180637 -0.027255064 -0.19565819 0.022960696 -0.18352312 -0.010583272 0.061699506 0.23652829 0.07222604 0.16541485 0.14399603 0.005734764 -0.052075524 -0.050818462 0.070750736 0.0015546969 0.1925839 -0.011160682 0.054573581 -0.13718501 0.059603009 -0.18551773 -0.15550411 0.17622797 0.11816703 -0.039787598 -0.10394958 -0.21316276 0.054832499 0.03215567 0.13411 -0.14685069 0.16618271 0.089679755 0.0040252772 -0.021227784 0.061031684 -0.061336555 0.15135354 0.0084992852 0.13795632 -0.21652974 -0.12690149 -0.048302822 0.037266403 -0.10703465 0.031195614 0.033763934 -0.10547507 -0.035499323 0.153144 -0.12307649 -0.11207916 0.0049233334 0.024180206 -0.062143184 -0.19584298 -0.076224267 0.03560647 -0.021039948 0.0081146248 0.12119454 -0.042162355 0.019589303 -0.022006489 0.030645832 -0.089413777 -0.096738286 -0.12546936 -0.009340534 -0.13210794 -0.13844731 0.19694336 0.010736221 -0.015866866 1.8054387e-05 -0.11898706 0.041603833 0.094976552 0.1524972 -0.085865043 -0.16621968 0.20580932 -0.11625485 -0.05195114 0.091612294 -0.030556506 -0.21025771 0.037482638 -0.20522246 -0.048682634 0.013594974 0.08965382 0.26265585 0.069599986 -0.056293461 -0.041476302 -0.033721223 -0.039683335 0.088262044 0.051199898 -0.087431453 0.051788542 -0.045271829 0.2096846 -0.038034227 -0.041995946 -0.087947972 -0.15964758 0.019397276 -0.27841541 -0.044140752 0.10759676 -0.079290412 0.14954999
10 -0.083321251 -0.15498187 0.058421612 0.00027736661 0.013327677 -0.087637886 0.13520975 -0.079371221 -0.074308351 0.030994844 -0.093883798 0.056467786 0.013582488 -0.13438776 -0.074583001 -0.13833287 0.04665802 -0.11324682 -0.0025370675 0.079948358 0.17940123 0.081437573 0.13086338 0.11824565 -0.049395438 -0.066406243 -0.041508216 0.055718277 -0.027778184 0.16678585 -0.013249891 0.049411412 -0.10208485 0.065738544 -0.18114343 -0.11399592 0.18849424 0.12389123 -0.040133584 -0.089248754 -0.2081544 0.083991252 0.025703846 0.084611125 -0.09441603 0.12893683 0.078809984 -0.0092871068 -0.057532478 0.029521815 0.0023341649 0.15852498 0.019232979 0.091355942 -0.19148432 -0.12849574 -0.060037512 -0.010748938 -0.11865041 0.049121033 -0.0028799095 -0.059765939 -0.066137299 0.14448877 -0.066944316 -0.17279167 0.0020866962 9.4117626e-05 -0.062851824 -0.15441182 -0.022392724 0.028869303 -0.012417466 0.037696648 0.037413072 -0.071356013 -0.012756367 0.0066444199 0.0211033 0.0086033726 -0.064094268 -0.15410787 -0.0012601743 -0.15907565 -0.083838381 0.24783407 -0.057502445 0.0049304529 -0.055368166 -0.12493643 0.017139666 0.12284305 0.11770565 -0.073520124 -0.10232343 0.18986905 -0.13398977 0.019930735 0.054121662 -0.078767896 -0.21003973 0.029332258 -0.18889891 -0.057667885 0.039847374 0.10227814 0.25827417 0.056821946 -0.04577665 -0.022855962 -0.0049648806 -0.077352688 0.067144215 0.037737869 -0.040941987 0.043282367 -0.049696255 0.19102751 -0.0048969937 0.0051899389 -0.082262509 -0.17081547 -0.018890526 -0.21958689 0.021538483 0.1368724 -0.093156762 0.093683459
22 -0.057856031 -0.20792355 0.049349368 -0.020040382 -0.015875308 -0.14164573 0.12805104 -0.031271078 -0.013639042 0.043298136 -0.090101987 0.1158869 0.033616975 -0.16760017 -0.019829188 -0.18892741 0.018225608 -0.18357888 -0.0050908336 0.054608453 0.22953597 0.070127457 0.15842225 0.13913488 0.0015766724 -0.048183445 -0.050807972 0.067004725 0.0058291219 0.18746899 -0.012461757 0.046834905 -0.13748527 0.054797228 -0.17864059 -0.15353279 0.16723986 0.11154351 -0.041204523 -0.10579605 -0.19507052 0.04044845 0.031522941 0.13580126 -0.13971114 0.16158086 0.084931739 0.0073041697 -0.016645553 0.059563041 -0.064871348 0.14301699 0.00044540761 0.13096884 -0.20332128 -0.12316979 -0.042733371 0.045616258 -0.095799692 0.025571944 0.035831843 -0.097638428 -0.030457864 0.14775364 -0.12482563 -0.10033039 -0.0010872211 0.028889395 -0.05781677 -0.19113883 -0.076208651 0.036790755 -0.022207988 0.0049911258 0.12418584 -0.038705003 0.01586663 -0.025011651 0.029684434 -0.093459927 -0.09423694 -0.12090997 -0.0093581062 -0.12368643 -0.13474029 0.17827483 0.017893357 -0.021194784 0.010566185 -0.11424664 0.043695327 0.088183329 0.14356594 -0.084599555 -0.1597499 0.1954167 -0.10810614 -0.059112385 0.092298537 -0.025967328 -0.19961688 0.033834957 -0.19275463 -0.042150781 0.011595291 0.086106941 0.25217998 0.072612062 -0.054563232 -0.039095744 -0.026952537 -0.032504506 0.090690352 0.056044225 -0.088585339 0.051629923 -0.046450906 0.20402734 -0.043717623 -0.04628104 -0.080122933 -0.14834994 0.024479972 -0.26737756 -0.048048299 0.10268804 -0.067443088 0.14974482
12 -0.063880295 -0.20858446 0.049024597 -0.020219926 -0.018431595 -0.13809007 0.12903392 -0.03474078 -0.01112201 0.046137523 -0.084981985 0.11824334 0.029623881 -0.16057608 -0.023839416 -0.18031922 0.018262472 -0.17925698 -0.0078188377 0.049962122 0.22514348 0.070629962 0.15611516 0.13545704 0.0030509343 -0.054444246 -0.048389193 0.067583159 0.00042919483 0.18176098 -0.0090102982 0.051491793 -0.13519518 0.05336652 -0.17785932 -0.14636379 0.16766399 0.11515425 -0.040679689 -0.10134965 -0.20295084 0.046401583 0.036190342 0.13008724 -0.1431676 0.16139548 0.092626587 0.0043786098 -0.022004852 0.060208596 -0.063455954 0.14961904 0.0038519178 0.12525502 -0.20857689 -0.12768537 -0.046232685 0.041178606 -0.097966343 0.030356757 0.036196161 -0.098126426 -0.034027014 0.14842023 -0.12747647 -0.10304889 0.0070046713 0.026144747 -0.059677713 -0.18935595 -0.069358334 0.036561973 -0.021389855 0.0099525414 0.11835413 -0.040808111 0.019739242 -0.022270642 0.026828228 -0.088199362 -0.090978168 -0.11676629 -0.013174877 -0.12028055 -0.13636045 0.18426943 0.010758952 -0.016558243 0.0032900283 -0.11923289 0.040695753 0.095051222 0.14532232 -0.078282148 -0.15633336 0.19373909 -0.10182944 -0.061318383 0.089626059 -0.022957502 -0.20153382 0.029518742 -0.19655025 -0.045806188 0.010502323 0.079106025 0.25356114 0.06912943 -0.049988002 -0.039635357 -0.035072748 -0.033795923 0.088551201 0.053159591 -0.084459804 0.055644218 -0.042654708 0.20714855 -0.043679435 -0.046261765 -0.084227756 -0.14878011 0.024169598 -0.26367033 -0.050572716 0.10360742 -0.077118471 0.14890097
