34 128
34 -0.068350658 -0.19293544 0.044718541 0.12112042 0.096318938 -0.13684538 0.23754038 -0.082429707 -0.11410839 -0.012813155 -0.080279417 0.10183097 0.0057330113 -0.18779629 -0.079132125 -0.20981717 0.017527301 -0.049034946 -0.055950668 0.08921726 0.17972565 0.057729889 0.12824059 0.067287855 -0.015719926 -0.051562957 0.03884716 0.028212132 -0.036165033 0.11933458 -0.09853401 0.050360322 -0.13255453 0.15028442 -0.10010283 -0.091670625 0.29547131 0.028925762 -0.037251245 -0.15129009 -0.23049408 0.054984178 0.068497524 0.18389548 -0.037559651 0.087325089 0.054991193 -0.16700801 -0.12610339 0.048775155 -0.031101331 0.20667459 0.12320352 -0.013647255 -0.17078657 -0.096857794 -0.10034671 -0.054168019 -0.12919454 -0.021390039 0.12033088 -0.19752873 -0.17193951 0.14989391 0.036756247 -0.23062028 -0.018596865 -0.050852921 -0.0052702408 -0.12335328 -0.0092757167 0.0051540532 -0.043648683 -0.0074193897 0.09998773 -0.047679331 0.094034933 0.016599074 0.028985411 0.11972309 -0.070647791 -0.28521186 -0.062918022 -0.23259993 -0.029289758 0.34609601 -0.14138578 0.025643073 -0.096752308 -0.049551308 0.066132113 0.070529938 0.10030887 -0.014077281 -0.088524431 0.25204682 -0.26029164 0.018524718 0.079333283 -0.056568258 -0.34622234 0.015600238 -0.20975743 -0.11638089 -0.050522078 0.090940841 0.25468656 0.093410753 -0.076893985 0.010176881 -0.023531254 -0.15201236 -0.0063873837 -0.036417238 0.01105508 0.036362503 -0.11312461 0.24290861 -0.0687363 0.090892211 -0.15511763 -0.13618554 -0.065756388 -0.22719295 0.066903956 0.1887795 -0.089276433 0.1339176
1 0.016456187 -0.21673332 -0.037469208 0.042786349 -0.021416962 -0.16595423 0.15196998 0.11759821 0.12473186 0.01081942 0.016293135 0.20342818 0.078234293 -0.20311686 0.048190221 -0.14119077 -0.097640701 -0.13447481 -0.11192787 -0.022805125 0.17724542 0.01500384 0.08416687 -0.0014039952 0.063060343 0.025944976 -0.014517779 0.056205228 0.09922462 0.059546206 -0.17119539 0.089926906 -0.12670958 0.06101644 -0.065599814 -0.20437549 0.23623012 0.051788408 -0.07763344 -0.10284566 -0.16656728 -0.12327978 0.13693665 0.26022169 -0.17601274 0.064523906 0.088676892 -0.13177735 -0.052901361 0.0095716333 -0.22400363 0.18495405 0.097361192 0.034743737 -0.15412715 -0.11224618 -0.10561129 -0.0027089564 0.0099889254 -0.10062359 0.24252543 -0.18256332 -0.074409917 0.12181506 -0.010710256 -0.0095563307 -0.021828933 0.042604629 -0.024924424 -0.21365778 -0.080319412 0.048649143 0.045435481 -0.15134852 0.21103199 0.005758048 0.11394077 -0.014965391 -0.072043069 -0.0864603 -0.044470254 -0.19246976 -0.10118227 -0.065527089 -0.15678936 0.07545802 0.088090651 -0.014463211 0.041002847 0.051978294 0.18810396 0.0098697161 0.10127474 -0.017771829 -0.12596476 0.057440866 -0.037072241 -0.27089599 0.072186261 0.097027861 -0.15801299 -0.076071449 -0.17024985 -0.025770536 -0.084914953 -0.019276373 0.14195044 0.098674066 -0.097042501 -0.082642891 0.0065302108 0.0018225219 0.087360628 0.032704066 -0.066450149 0.052416261 -0.063097954 0.22267327 -0.13178177 -0.087252676 -0.068899326 0.0054427497 0.085548691 -0.14883178 -0.16783576 0.020264827 0.020389369 0.23981081
33 -0.045376256 -0.19765927 0.02228412 0.10471342 0.069395453 -0.14406221 0.2111592 -0.030927006 -0.053514056 -0.0062433509 -0.050411142 0.12423254 0.020858163 -0.19015934 -0.041677076 -0.18667151 -0.015240029 -0.065596029 -0.073699951 0.059119884 0.18140665 0.047373395 0.11538544 0.048040401 -0.0036056449 -0.029585978 0.020269917 0.032139376 -0.0023252862 0.10345897 -0.1148383 0.059274621 -0.12103263 0.12626496 -0.092282742 -0.11642535 0.26818177 0.03062496 -0.051450923 -0.13220181 -0.19939403 0.01747727 0.073471092 0.17895041 -0.061184064 0.084021717 0.05495612 -0.14645365 -0.10674793 0.031990897 -0.066599838 0.18715262 0.10795382 -0.0099714482 -0.15290618 -0.084037863 -0.097109497 -0.039872736 -0.087003313 -0.033938445 0.1450309 -0.190331 -0.14172773 0.13874236 0.027398439 -0.17487676 -0.013500804 -0.027908014 -0.0076851225 -0.12586248 -0.019301608 0.015249906 -0.022582 -0.032529421 0.10582495 -0.026938232 0.089337707 0.0045334063 0.0072725443 0.070504993 -0.052678939 -0.24781732 -0.066650011 -0.18369448 -0.055216506 0.27068481 -0.085472666 0.015596529 -0.060030062 -0.026142186 0.089270219 0.053151492 0.089187391 -0.014837591 -0.076827668 0.19439921 -0.19906625 -0.047061626 0.076971173 -0.026276045 -0.28986523 -0.0098819369 -0.18981758 -0.081433669 -0.049333684 0.059327982 0.21513087 0.087299801 -0.072205603 -0.010517478 -0.016510943 -0.11006035 0.013172583 -0.026727706 -0.0039744149 0.037291303 -0.09805382 0.21336935 -0.077367269 0.041675508 -0.1242388 -0.09762013 -0.027250607 -0.19563332 0.0231604 0.13871212 -0.068012856 0.14179429
3 -0.02599401 -0.19499967 0.0064712302 0.081007563 0.039474335 -0.14572598 0.19125412 0.012581004 -0.0099323019 -0.0025271908 -0.030035857 0.14303982 0.036033574 -0.19361122 -0.018425701 -0.17533167 -0.034604244 -0.085092925 -0.081980325 0.033638582 0.17121655 0.041052938 0.10271439 0.038206339 0.021579644 -0.011001599 0.013173808 0.044009123 0.032710627 0.091741793 -0.13052896 0.059953805 -0.13093711 0.11286084 -0.081803687 -0.14304842 0.26044622 0.036940668 -0.053873669 -0.12177058 -0.18871205 -0.032618005 0.094860598 0.21520269 -0.09888085 0.07610105 0.067444764 -0.14703804 -0.093407862 0.026211947 -0.11356455 0.18173584 0.10579743 0.010253547 -0.15969208 -0.099018358 -0.099562429 -0.029179553 -0.067164801 -0.053991076 0.17024517 -0.18425758 -0.12272236 0.13506661 0.015793687 -0.12052802 -0.016174151 -0.0050909333 -0.014949728 -0.16183117 -0.039797965 0.027359553 -0.0010909496 -0.071781427 0.14942822 -0.019366767 0.10350307 -0.00093466457 -0.014060546 0.022868868 -0.056386169 -0.23117401 -0.08171887 -0.14689478 -0.083322331 0.21474022 -0.031629436 0.0059843957 -0.029980691 -0.0046501257 0.11854321 0.040736996 0.093468167 -0.018983578 -0.10602041 0.15474075 -0.15594497 -0.11145079 0.074878424 0.015291233 -0.25057155 -0.030884385 -0.18415529 -0.069010675 -0.062881924 0.040981248 0.19484454 0.094958968 -0.083515011 -0.035830937 -0.0085671069 -0.078499705 0.038522895 -0.0043821922 -0.02408083 0.045222703 -0.090365529 0.22569491 -0.091653183 0.004892535 -0.11379824 -0.073964812 0.0031595547 -0.18882689 -0.038007446 0.10633002 -0.034263272 0.17841966
2 0.017127894 -0.20768674 -0.030896114 0.047313496 -0.010120666 -0.15926293 0.1565852 0.09856613 0.084702902 0.0083750729 0.0054327007 0.19159983 0.073684745 -0.20180267 0.035290714 -0.15442231 -0.087313637 -0.11345776 -0.10208941 -0.0093998937 0.173867 0.025383312 0.088773116 0.0062801638 0.048552733 0.024545874 -0.0070539606 0.056386977 0.089751817 0.06712769 -0.15690963 0.075418763 -0.13535096 0.080820978 -0.065994874 -0.18228386 0.23733848 0.039017688 -0.066815495 -0.10309696 -0.15882103 -0.10037019 0.12546197 0.24935217 -0.15724248 0.06488613 0.07533966 -0.13353792 -0.056954864 0.0045330171 -0.19734745 0.16611865 0.10371032 0.040249962 -0.15786663 -0.10559939 -0.095468052 -0.004836713 -0.01311991 -0.089714795 0.21930079 -0.17575239 -0.083779633 0.11424445 -0.0060784128 -0.020696422 -0.023689006 0.028359355 -0.026483592 -0.19941454 -0.077408351 0.044643249 0.041541904 -0.13503633 0.19306128 0.0077421078 0.10917302 -0.014391986 -0.05602752 -0.062487558 -0.049232993 -0.20177984 -0.10289291 -0.075478479 -0.13421905 0.10651762 0.065626703 -0.012378796 0.03358759 0.036189951 0.16957621 0.014577257 0.092580862 -0.031349394 -0.12872456 0.071502276 -0.06351018 -0.23497702 0.061848368 0.083788447 -0.16399209 -0.071336664 -0.15783416 -0.037040029 -0.082746483 -0.012698259 0.15335175 0.1021246 -0.10153074 -0.073438704 -0.0021276346 -0.013733429 0.079760306 0.023662567 -0.063739955 0.048383977 -0.068546697 0.21994932 -0.12520579 -0.068228371 -0.080626607 -0.016981978 0.069288991 -0.16319837 -0.13198592 0.039680548 0.017978098 0.22615916
32 -0.05212779 -0.20439905 0.021735871 0.10599948 0.07045579 -0.14348513 0.22599107 -0.046808034 -0.068918563 -0.006157151 -0.058813591 0.12541698 0.018016461 -0.19257352 -0.052863281 -0.19272931 -0.0086490931 -0.070056647 -0.07621108 0.065569386 0.18537338 0.053108316 0.11643381 0.055031192 -0.0077251969 -0.035999313 0.023586072 0.035515435 -0.0079273432 0.10710112 -0.11653978 0.056198496 -0.12037546 0.13204738 -0.099565998 -0.11542621 0.28384334 0.036447879 -0.049017176 -0.148177 -0.21347855 0.021067867 0.070938721 0.18666402 -0.063041061 0.088233449 0.059706282 -0.14906372 -0.11278462 0.033149395 -0.066504285 0.20042546 0.11041726 -0.01073785 -0.16333155 -0.094617359 -0.10219079 -0.045431398 -0.10182181 -0.033528928 0.14736393 -0.19535707 -0.1512619 0.14988934 0.02239239 -0.18917166 -0.020629 -0.027902819 -0.0095439758 -0.13899437 -0.024314547 0.018798608 -0.026818683 -0.035531268 0.11576518 -0.031671017 0.095956288 0.0078255814 0.0086916983 0.079307102 -0.065542027 -0.26361266 -0.064925991 -0.19727857 -0.056240823 0.29633152 -0.098097898 0.017238129 -0.067668214 -0.035887174 0.095147103 0.060161978 0.10341565 -0.015377528 -0.083986409 0.21228419 -0.21492581 -0.037957862 0.07768175 -0.032989457 -0.30878729 -0.0083107697 -0.20890546 -0.094347119 -0.04874713 0.075231872 0.23731208 0.092449583 -0.08098685 -0.0049237553 -0.017723853 -0.12671168 0.013512444 -0.022873223 -0.00055641477 0.040575702 -0.10667993 0.23597041 -0.073413879 0.049481601 -0.13772482 -0.11244423 -0.036842361 -0.20821658 0.032280926 0.15068071 -0.07708241 0.15255378
4 0.00032453341 -0.19495538 -0.01603673 0.062715299 0.013789049 -0.15581499 0.1612038 0.066410601 0.046264146 0.0034637314 -0.0048192129 0.17239767 0.061797764 -0.1957237 0.013462754 -0.16044325 -0.066312432 -0.1013057 -0.089235879 0.012846019 0.17342255 0.030454887 0.089528389 0.015202463 0.037191804 0.015988147 -0.0003847628 0.052443225 0.068013959 0.07265456 -0.1472984 0.065765575 -0.13054103 0.09178742 -0.070557602 -0.16527596 0.24580723 0.038681995 -0.059806515 -0.10651165 -0.16577137 -0.074800514 0.11186402 0.2343754 -0.12516163 0.065966569 0.067146659 -0.13854896 -0.074029639 0.0081794001 -0.1571257 0.16353077 0.10358194 0.027036002 -0.15401007 -0.095465243 -0.092775688 -0.014783666 -0.031711411 -0.08062464 0.20289898 -0.18151562 -0.096429288 0.12073167 0.0075062132 -0.05597223 -0.025751673 0.016035575 -0.019345501 -0.1756057 -0.06056314 0.038723879 0.027286794 -0.11086286 0.17172657 -0.0026223406 0.10692877 -0.0050329375 -0.03964746 -0.020119298 -0.047053937 -0.21358445 -0.090016015 -0.10073188 -0.10920323 0.14539079 0.031709455 -0.0081496788 0.011306225 0.02102357 0.13955666 0.020794692 0.083599925 -0.027722577 -0.11376604 0.10117193 -0.10140838 -0.18181045 0.064951278 0.04994487 -0.19697538 -0.052680567 -0.15567754 -0.041181754 -0.075883187 0.011761487 0.15911657 0.095893212 -0.09373568 -0.057498541 -0.00088707992 -0.041882936 0.060582366 0.014138123 -0.044982519 0.048613943 -0.078149244 0.21562059 -0.10957196 -0.037934292 -0.088808157 -0.038457703 0.035481613 -0.17324255 -0.090925135 0.064526148 -0.0020317873 0.20179184
24 -0.045088779 -0.17558838 0.028733538 0.099644475 0.068045184 -0.12827228 0.19885291 -0.046205442 -0.067283802 -0.0053423024 -0.052675392 0.10335374 0.017970996 -0.17253602 -0.051584799 -0.17897025 -0.0038145755 -0.057156164 -0.059450828 0.061577976 0.16369095 0.048463121 0.10707039 0.055071764 -0.0052193063 -0.029095765 0.025134485 0.027222786 -0.013881096 0.10048645 -0.10353324 0.048802339 -0.1158178 0.11799211 -0.084703825 -0.098291725 0.2530328 0.024539178 -0.039967593 -0.13216436 -0.1855434 0.02718279 0.059917334 0.16537882 -0.046805412 0.078562118 0.044317208 -0.13043566 -0.099605478 0.031327069 -0.046751179 0.1737359 0.097184934 -0.005997194 -0.13880286 -0.076013148 -0.083976023 -0.0393207 -0.095364235 -0.028024731 0.12116779 -0.17307489 -0.13269942 0.12666316 0.020895613 -0.17218205 -0.015876984 -0.028025834 -0.0093891574 -0.10900264 -0.015740298 0.013148119 -0.029733637 -0.023342503 0.094908424 -0.032968532 0.077069081 0.0037547357 0.013094539 0.08040148 -0.05175053 -0.22997221 -0.057411976 -0.17411423 -0.042924386 0.26080966 -0.097448029 0.020278977 -0.061709795 -0.031073516 0.071626395 0.051314499 0.085812181 -0.01581361 -0.071398608 0.19410914 -0.19370085 -0.017781403 0.067807265 -0.033353984 -0.27709997 0.0032638817 -0.17213447 -0.08203312 -0.044791311 0.068075009 0.20659763 0.081823081 -0.067345247 0.00068999408 -0.015937624 -0.11641026 0.0066488064 -0.023830444 -0.0043853084 0.030044494 -0.093248405 0.1980513 -0.061071053 0.054831889 -0.12061618 -0.10101164 -0.038807284 -0.18595423 0.039804507 0.1426814 -0.066875994 0.1286907
14 -0.0096763736 -0.20322126 -0.007870472 0.064357735 0.020077247 -0.15056069 0.17148054 0.047575355 0.035489988 0.0051633152 -0.017541509 0.16676705 0.050836254 -0.19330005 0.0063572698 -0.15976793 -0.057561815 -0.098895133 -0.089852765 0.012852186 0.17654501 0.03518451 0.095154829 0.023061637 0.03130164 0.0055559343 0.006864775 0.050219517 0.049728367 0.080787532 -0.14047442 0.070793591 -0.12651615 0.093909204 -0.06999696 -0.15948604 0.24529965 0.04023464 -0.062828459 -0.11344958 -0.17859182 -0.060344785 0.10781447 0.22581042 -0.12180887 0.072412543 0.072788104 -0.13577811 -0.076721996 0.020923171 -0.15192997 0.17859027 0.1014325 0.018996758 -0.15220132 -0.10148039 -0.10190448 -0.015802735 -0.040701162 -0.075119428 0.19538568 -0.18587078 -0.10203413 0.12383326 0.0036911145 -0.078262448 -0.018688528 0.0065002195 -0.018382177 -0.17765795 -0.057882044 0.037584621 0.013659589 -0.096075885 0.16987807 -0.0073400023 0.10557117 -0.0058678198 -0.036314309 -0.016067883 -0.053577758 -0.21908018 -0.086089738 -0.11434281 -0.11197607 0.16961244 0.0098996647 -0.0032121723 -0.001773696 0.013836649 0.14031032 0.026886594 0.095117353 -0.019616399 -0.11109548 0.12077115 -0.11467985 -0.1642656 0.073945418 0.04338 -0.21718585 -0.047840159 -0.17463642 -0.050636258 -0.074425399 0.019585373 0.17726153 0.097891994 -0.093160599 -0.051290341 -0.0088021969 -0.053444058 0.05231655 0.0092649208 -0.034977827 0.045280792 -0.082482778 0.21966839 -0.10715189 -0.025758943 -0.096698098 -0.04696985 0.031518698 -0.1771304 -0.077901676 0.07460352 -0.018783867 0.19628952
28 -0.053048637 -0.18719774 0.031533308 0.10075709 0.070029274 -0.12967652 0.20942116 -0.049942147 -0.075893871 -0.0075822673 -0.056975912 0.11157546 0.016438918 -0.17670211 -0.057989776 -0.18463846 -0.0025247151 -0.061151545 -0.061222177 0.067753762 0.1680505 0.048563994 0.11235556 0.054862216 -0.0089644883 -0.031119071 0.022389896 0.032015562 -0.0098734694 0.10388803 -0.10489991 0.053055599 -0.11420235 0.12886924 -0.091704279 -0.10665601 0.26429626 0.029590368 -0.040021461 -0.13604131 -0.19972853 0.020927448 0.065223858 0.17556784 -0.053156883 0.079796411 0.046004809 -0.14176841 -0.109216 0.032659423 -0.056998916 0.1838837 0.10684678 -0.013601537 -0.14725287 -0.084271066 -0.095466644 -0.045070436 -0.10535391 -0.026246879 0.12942363 -0.1842874 -0.1389588 0.13835587 0.026153419 -0.18027937 -0.017705193 -0.028510721 -0.0125497 -0.12198858 -0.019397998 0.015790848 -0.031377465 -0.028013891 0.10036507 -0.031698778 0.084441721 0.0099475486 0.011236229 0.084255546 -0.059820287 -0.24787976 -0.058324337 -0.18540122 -0.045076568 0.28243965 -0.10062639 0.018893793 -0.06678275 -0.03370554 0.079819821 0.054617759 0.089478441 -0.016558696 -0.074754462 0.20050699 -0.20849577 -0.017651588 0.074030451 -0.036172442 -0.2953102 0.0024987769 -0.19152737 -0.089408487 -0.042130467 0.075605072 0.2229633 0.090143763 -0.070995361 -0.0039401669 -0.017148022 -0.12064127 0.0049940627 -0.026174841 0.00074665435 0.030741256 -0.10165484 0.21203358 -0.068733856 0.052904446 -0.12787536 -0.10696129 -0.04136179 -0.19271114 0.035447322 0.14421229 -0.070005521 0.13393392
9 -0.02587783 -0.19948642 -0.00081712415 0.081813835 0.03921039 -0.14795698 0.19109765 0.013691077 -0.00022146315 -0.0016670362 -0.030373674 0.15094911 0.038657364 -0.19582489 -0.017425703 -0.17412813 -0.041096494 -0.081918895 -0.085081093 0.036364648 0.17339475 0.04223191 0.10768374 0.030515131 0.01537737 -0.0089562824 0.010614754 0.036888644 0.026772019 0.090532348 -0.12763134 0.066907533 -0.12598179 0.10423779 -0.077443644 -0.14109346 0.2599183 0.036696654 -0.059646435 -0.12065142 -0.18729824 -0.029933911 0.091211341 0.20535718 -0.096276872 0.073456466 0.064619735 -0.14183486 -0.089432366 0.019320071 -0.11436734 0.18019612 0.10034647 0.0057876962 -0.14640853 -0.093242802 -0.099135086 -0.02902204 -0.062304724 -0.057301767 0.17169508 -0.18460134 -0.12248994 0.13363928 0.016511654 -0.12057438 -0.016973237 -0.0074181817 -0.015389076 -0.15277918 -0.03784842 0.029712208 0.0022623492 -0.070490792 0.1430642 -0.019066239 0.093442731 0.003394156 -0.019548057 0.026488923 -0.050666705 -0.22846633 -0.081444241 -0.14790836 -0.08507102 0.20822842 -0.031841256 0.0051924977 -0.030514566 -0.0030658999 0.11885647 0.036658917 0.096549205 -0.012328963 -0.095662944 0.14563787 -0.14985347 -0.11271641 0.072941616 0.015074052 -0.25247633 -0.034556996 -0.18656722 -0.06575527 -0.061364543 0.037955385 0.19182652 0.096024401 -0.088232793 -0.03578591 -0.0069019184 -0.077512927 0.039847411 -0.0085905939 -0.023180153 0.040374126 -0.092897475 0.22370818 -0.095416822 0.0086921891 -0.11151522 -0.070784062 0.0030931453 -0.18276204 -0.036109317 0.10757992 -0.037979875 0.17384799
30 -0.040563375 -0.19897623 0.01801938 0.10297436 0.059158362 -0.13970806 0.21334903 -0.032112781 -0.051009506 -0.0034852743 -0.055074681 0.12799598 0.021379771 -0.1896368 -0.045631576 -0.18875334 -0.014211144 -0.071309544 -0.076470681 0.060726918 0.17890923 0.044178911 0.11742957 0.045555085 0.0045525711 -0.030611787 0.025392009 0.034333903 -0.0050875694 0.10393819 -0.11724922 0.055864811 -0.12195961 0.12010086 -0.090477318 -0.11470781 0.26978579 0.035694212 -0.047736563 -0.13919486 -0.20519963 0.010072287 0.079644114 0.19523199 -0.067720897 0.082715131 0.061292198 -0.15279132 -0.10631548 0.03686915 -0.076880075 0.1955383 0.11108462 -0.011047316 -0.15306777 -0.092009284 -0.10410152 -0.03815195 -0.087007895 -0.040337726 0.15090546 -0.19416171 -0.13785613 0.14041935 0.02755837 -0.17233865 -0.020092245 -0.026774392 -0.0095260656 -0.14282592 -0.024151767 0.018246079 -0.0206705 -0.043072131 0.12453666 -0.032622941 0.097245574 0.0086307498 0.0021416699 0.069129162 -0.064102024 -0.25557294 -0.073904805 -0.18396588 -0.062269136 0.27373213 -0.083949283 0.015565339 -0.060861219 -0.024033627 0.099099815 0.049632426 0.099524051 -0.0093874866 -0.087811083 0.19865818 -0.19929335 -0.051031992 0.078848131 -0.020596994 -0.28802946 -0.010231197 -0.19767614 -0.090794094 -0.056290966 0.060993288 0.22019005 0.092483625 -0.083015844 -0.012221665 -0.018329233 -0.11435948 0.014118066 -0.023761723 -0.0019615314 0.038379963 -0.10281623 0.22679557 -0.082862593 0.046162747 -0.13118945 -0.095320582 -0.026460243 -0.19870631 0.013961299 0.14196068 -0.059785552 0.1536224
8 -0.0027853788 -0.19542891 -0.011743101 0.064576626 0.01164946 -0.14396441 0.16747497 0.052355912 0.040143751 0.0066330093 -0.013143449 0.16215248 0.049891137 -0.18636511 0.012437123 -0.15679823 -0.058333945 -0.096932054 -0.085634783 0.016281651 0.1657756 0.029101836 0.089878969 0.014961127 0.035063177 0.010087792 0.0023781112 0.047685012 0.053555168 0.076835178 -0.13957714 0.067527905 -0.12064606 0.088641241 -0.069077991 -0.15517767 0.23981531 0.037542637 -0.056861773 -0.10249804 -0.16531044 -0.06163023 0.10014391 0.21976142 -0.11744785 0.069670521 0.06667693 -0.13161531 -0.072969884 0.016899012 -0.14932705 0.16427776 0.10275935 0.021189541 -0.14726378 -0.095886722 -0.096986175 -0.019404093 -0.03358737 -0.075925067 0.18526328 -0.17475194 -0.095164716 0.11936445 0.0084585305 -0.071161218 -0.017595487 0.0093974071 -0.016390795 -0.1709339 -0.058045655 0.032756492 0.015574236 -0.099040113 0.16111146 -0.005085615 0.095669411 -0.0058308379 -0.037049837 -0.017485313 -0.045421645 -0.20652695 -0.085671619 -0.10211723 -0.10777713 0.15245089 0.021480577 -0.0017801705 0.0010661473 0.014583518 0.13691929 0.021557614 0.086794727 -0.020323582 -0.10732719 0.10260572 -0.10182759 -0.1687236 0.062135737 0.040777642 -0.19239488 -0.050734546 -0.16592461 -0.049781237 -0.067720801 0.0090182647 0.16326845 0.085697815 -0.088183634 -0.052915439 -0.007009373 -0.041658912 0.056350883 0.0088728014 -0.042713955 0.0481853 -0.077368386 0.20903118 -0.10401983 -0.029763963 -0.090778947 -0.042249653 0.038214263 -0.16164634 -0.07918407 0.063671909 -0.0074192593 0.18664615
25 -0.058072247 -0.20052965 0.028727107 0.10677523 0.071056299 -0.14260358 0.22279097 -0.057646107 -0.072737046 -0.0086107329 -0.064654566 0.11389258 0.016725246 -0.18821897 -0.06033222 -0.20152456 -0.00059030211 -0.067405477 -0.064929076 0.074206471 0.18570809 0.050054494 0.12237689 0.063043855 -0.0054398696 -0.041420512 0.028949872 0.031060481 -0.019688152 0.11257675 -0.11048274 0.056282572 -0.12416855 0.1300236 -0.10343716 -0.10976941 0.27909982 0.03539107 -0.046018042 -0.15039366 -0.21922734 0.028777262 0.068733126 0.18494269 -0.053323306 0.092716105 0.055661112 -0.14965186 -0.11255153 0.040291246 -0.063252598 0.20448524 0.11591699 -0.010754393 -0.16622597 -0.094323479 -0.098307915 -0.050646432 -0.10987844 -0.025920242 0.13824713 -0.19480971 -0.14893623 0.14504695 0.023634417 -0.19951387 -0.018618189 -0.030940171 -0.013963385 -0.13305178 -0.019213919 0.010294892 -0.028911589 -0.02598682 0.11117119 -0.042177074 0.091316633 0.010667684 0.016560469 0.085393637 -0.06495481 -0.27064487 -0.0668189 -0.20939702 -0.052002415 0.30340835 -0.11053708 0.015403232 -0.077572152 -0.040837541 0.085738182 0.059505407 0.10477243 -0.017074402 -0.08755067 0.22226182 -0.22515507 -0.024450947 0.082068391 -0.033665508 -0.32144776 0.00244958 -0.21028337 -0.097349524 -0.047565524 0.075577646 0.24124397 0.096892558 -0.074343406 -0.0049961782 -0.023172783 -0.1318991 0.008420446 -0.030220592 -0.0054306434 0.036311787 -0.10534405 0.23415473 -0.075390048 0.058180273 -0.14006363 -0.11121668 -0.045424148 -0.21723978 0.035602629 0.16545776 -0.080850229 0.14851816
26 -0.04200903 -0.20570597 0.021536009 0.1008723 0.064600088 -0.15172824 0.22305337 -0.032466475 -0.05335968 -0.0071969586 -0.053870764 0.12953475 0.0303666 -0.20177217 -0.046033498 -0.19191627 -0.015779248 -0.076659828 -0.078730099 0.061535768 0.19331975 0.048303992 0.12236955 0.055072177 -0.00091585662 -0.031116925 0.016229805 0.032994535 -0.0013052328 0.11049513 -0.12040662 0.063499935 -0.12590803 0.12343074 -0.10265668 -0.13222203 0.28629404 0.033997279 -0.053334784 -0.14555402 -0.21373051 0.0029915115 0.075887963 0.19927807 -0.074823238 0.094095305 0.055828609 -0.15220803 -0.11183322 0.03760438 -0.081682533 0.20611386 0.1139909 -0.01043824 -0.16632779 -0.097615495 -0.10336539 -0.041824646 -0.097390346 -0.038883619 0.16191207 -0.2031104 -0.14404517 0.15199286 0.023343187 -0.17402387 -0.016231893 -0.027112646 -0.010634321 -0.14303027 -0.028367467 0.019699454 -0.024140455 -0.047695119 0.12970005 -0.033531182 0.093249559 0.0048192646 0.00070081692 0.062560894 -0.064605072 -0.25849396 -0.070181973 -0.18631673 -0.064829752 0.27968657 -0.087490954 0.014493348 -0.05990475 -0.025755184 0.10645609 0.054462302 0.10652599 -0.012324514 -0.088617742 0.20060347 -0.20388171 -0.058508106 0.084270805 -0.019915473 -0.30144173 -0.011711788 -0.20701726 -0.084672377 -0.052082911 0.064888254 0.23383632 0.097051643 -0.076296978 -0.01044315 -0.020503173 -0.11638883 0.020055551 -0.018896664 -0.01019065 0.03884352 -0.10235663 0.23236552 -0.079748012 0.034162469 -0.13169214 -0.10184803 -0.02721256 -0.21103157 0.011983309 0.14646906 -0.068297274 0.1580783
20 -0.028431553 -0.20056757 0.0055301855 0.085628763 0.039104238 -0.15011878 0.19816379 0.0066367891 -0.013207474 -0.002816835 -0.036064226 0.14331397 0.040893115 -0.19261473 -0.022582192 -0.17671211 -0.038917042 -0.084144987 -0.083662406 0.035773046 0.18046302 0.038341068 0.10890877 0.037154425 0.01683644 -0.011307224 0.016849928 0.038134355 0.025287611 0.088241436 -0.13035354 0.062043652 -0.1206691 0.10558946 -0.079242095 -0.13355112 0.26080975 0.033934571 -0.057005644 -0.12849411 -0.19050224 -0.024551034 0.085311517 0.20161876 -0.088951156 0.076764554 0.066531628 -0.13939275 -0.089142479 0.022471284 -0.11082776 0.18165165 0.10554911 0.00015135267 -0.15122783 -0.092870913 -0.097450867 -0.03454547 -0.06880147 -0.051567391 0.1727858 -0.18299757 -0.12071222 0.13431445 0.014338305 -0.12855226 -0.019510558 -0.0062881201 -0.016187476 -0.15127593 -0.041389871 0.027775461 -0.0063921926 -0.068526529 0.14136799 -0.017832177 0.098914266 0.00044391782 -0.013626848 0.032079246 -0.055157613 -0.23756157 -0.076778218 -0.15461192 -0.080368683 0.22412752 -0.041445747 0.0079852119 -0.035601746 -0.0052171596 0.11811025 0.04108705 0.0961309 -0.017178189 -0.094892852 0.15797794 -0.1541397 -0.10456067 0.070956811 0.011825165 -0.25580004 -0.029932452 -0.18859656 -0.066138268 -0.061390609 0.044076283 0.19649383 0.092665255 -0.079166852 -0.026550706 -0.01225097 -0.080356941 0.03435472 -0.0055873841 -0.023769088 0.039816178 -0.087369472 0.22354701 -0.089687303 0.0099372733 -0.11219361 -0.068990827 0.00034710777 -0.18802403 -0.027884947 0.11113434 -0.044464931 0.17212735
7 0.014672753 -0.21580359 -0.036948718 0.054649081 -0.013478631 -0.15755622 0.16686678 0.095518246 0.10383518 0.00859515 0.0072582029 0.19796298 0.068742633 -0.20730297 0.039089721 -0.14597102 -0.086650692 -0.13016707 -0.11603872 -0.0090567442 0.18192427 0.016467696 0.090929948 0.0074726241 0.057455942 0.011803565 -0.018486688 0.045940422 0.08158806 0.068521589 -0.15579736 0.087303363 -0.12598173 0.064107746 -0.07306955 -0.19406027 0.2452639 0.050943729 -0.080122761 -0.10753421 -0.17888288 -0.10148168 0.12924621 0.25482178 -0.16327162 0.075427443 0.09139657 -0.13814965 -0.061562236 0.012280398 -0.20486692 0.19165806 0.099684902 0.02753024 -0.15548913 -0.10874669 -0.10919356 -0.014716229 0.0038255285 -0.090370178 0.23547637 -0.18612933 -0.083198994 0.13387796 -0.0037714709 -0.036792651 -0.022002349 0.035584018 -0.018122708 -0.21184188 -0.076179869 0.053296536 0.026251849 -0.1356463 0.20538086 0.0039290064 0.10809975 -0.0061530257 -0.066305108 -0.0653679 -0.048856631 -0.1990449 -0.097770862 -0.078068674 -0.14853127 0.10800707 0.06338577 -0.0089833783 0.019977398 0.044110943 0.18371911 0.015149507 0.10797406 -0.015319632 -0.12007999 0.086586565 -0.058578398 -0.24366346 0.071512744 0.077187687 -0.18316644 -0.066608027 -0.18837525 -0.035059895 -0.084004842 -0.0120638 0.15278126 0.097020075 -0.091371171 -0.073422126 0.010206899 -0.0095464839 0.07571172 0.018011825 -0.058451552 0.05159511 -0.074406184 0.22363836 -0.1270456 -0.064153075 -0.080776125 -0.0089149112 0.078863971 -0.15787046 -0.14826384 0.037163209 0.012417423 0.23470967
6 0.0080506448 -0.21700364 -0.030389627 0.062167555 -0.0059739118 -0.15915342 0.17107788 0.090614505 0.092688404 0.0081892405 0.008981891 0.19500737 0.0653354 -0.20563242 0.033933528 -0.1481003 -0.086089417 -0.12932338 -0.11057474 -0.0078273742 0.18072863 0.017432548 0.090627052 0.0047463509 0.0541794 0.010191455 -0.012868057 0.043435894 0.080459386 0.074163191 -0.15783091 0.081038289 -0.11867525 0.068652838 -0.07016436 -0.18833406 0.24550064 0.055533562 -0.080943123 -0.11058351 -0.17663331 -0.094617806 0.1269744 0.24180123 -0.16064082 0.07370054 0.089500993 -0.13926783 -0.06135026 0.013634693 -0.19443451 0.18946986 0.094191216 0.020166522 -0.14689687 -0.11028346 -0.10802917 -0.016031075 -0.0014550425 -0.093345225 0.23361163 -0.18274604 -0.086212046 0.13241035 -0.0018412381 -0.048318755 -0.025962193 0.030226445 -0.021862369 -0.20699957 -0.068696901 0.048330992 0.025716504 -0.12867039 0.20119123 0.0015650284 0.11072347 -0.0044077397 -0.063151956 -0.05418171 -0.052234959 -0.20139629 -0.092491254 -0.086242713 -0.13918956 0.11435642 0.059837293 -0.010609969 0.017589169 0.037434943 0.17785643 0.020441322 0.10739851 -0.010917389 -0.11641441 0.089746401 -0.066421784 -0.234919 0.07799188 0.071031377 -0.18652213 -0.067799784 -0.18575294 -0.035494395 -0.082456172 -0.0014098429 0.15736742 0.10035609 -0.090413362 -0.070766374 0.010030182 -0.017026315 0.073634259 0.020128708 -0.051647346 0.055905055 -0.072550662 0.22308715 -0.12117606 -0.063192815 -0.079595715 -0.018393477 0.072087318 -0.16411488 -0.14027449 0.044310819 0.0066556777 0.22263601
29 -0.043091748 -0.18950836 0.018071635 0.093430616 0.062284276 -0.13786101 0.20265491 -0.033470269 -0.050090548 -0.0034024841 -0.04798473 0.12362966 0.020200206 -0.18079232 -0.042464186 -0.18073799 -0.017399332 -0.071156122 -0.067256518 0.055420544 0.17451946 0.043228682 0.10635041 0.047080353 -0.0033576302 -0.028637182 0.020260718 0.03060355 0.0013800825 0.10081969 -0.10887817 0.05385017 -0.11337748 0.11722378 -0.090914227 -0.11347669 0.26297075 0.032196242 -0.044731118 -0.13513725 -0.1916866 0.011016613 0.068176508 0.17906995 -0.061692078 0.085766248 0.052831851 -0.14082018 -0.10391936 0.032727428 -0.073271163 0.1835053 0.1031852 -0.0074264123 -0.1537492 -0.083219841 -0.091006994 -0.035575788 -0.085997149 -0.034686182 0.1436891 -0.18675308 -0.13625899 0.13455825 0.019347003 -0.16383429 -0.020440957 -0.025280589 -0.0073561454 -0.12478425 -0.027246464 0.016130343 -0.023975033 -0.037041057 0.11278448 -0.024631241 0.090480223 0.0045770016 0.004493698 0.062942527 -0.060519528 -0.23627576 -0.061697297 -0.17536847 -0.057516862 0.25827202 -0.076215744 0.010579801 -0.05494133 -0.028304251 0.091389343 0.045670182 0.09012717 -0.011980228 -0.076657437 0.18749404 -0.19057827 -0.045826413 0.073719963 -0.023870843 -0.27866286 -0.0064680898 -0.18624967 -0.080112524 -0.047448482 0.059807234 0.20774826 0.083206549 -0.072848879 -0.0085630659 -0.013989532 -0.10628127 0.012287247 -0.021789551 -0.010001648 0.031930611 -0.096882068 0.20977317 -0.071470581 0.036633573 -0.12249532 -0.093900949 -0.028338823 -0.19205126 0.018866746 0.13490167 -0.063482687 0.14077343
31 -0.018430993 -0.19720311 0.0011692006 0.079650439 0.028816709 -0.14962709 0.18319757 0.022503506 0.011486338 0.0011442085 -0.021053825 0.15837939 0.046714842 -0.19441618 -0.0088380454 -0.17037453 -0.050054744 -0.090003766 -0.083625533 0.026922166 0.1737842 0.03230609 0.097670197 0.032199707 0.027402015 -0.0057223663 0.010389581 0.044469878 0.035460204 0.084485248 -0.13583761 0.071558215 -0.12610008 0.099973865 -0.074318402 -0.14262174 0.24989332 0.037688561 -0.054906271 -0.12319165 -0.18505979 -0.037412096 0.099188142 0.21102303 -0.1072557 0.072464086 0.066295721 -0.1429863 -0.083648033 0.024714293 -0.13086425 0.18452013 0.10192024 0.0071775122 -0.14770693 -0.098935187 -0.098388977 -0.028544838 -0.055831589 -0.066321403 0.18471524 -0.18458271 -0.11584606 0.12659967 0.0088302679 -0.10801584 -0.023791725 -0.0011487511 -0.019541526 -0.16564034 -0.044855166 0.027745917 0.0051621543 -0.08101435 0.15547869 -0.015502187 0.10433656 -0.0015609753 -0.0214893 0.0123899 -0.051045164 -0.22783883 -0.083775029 -0.13751745 -0.094258934 0.19312936 -0.020047972 0.00022412048 -0.019829834 0.00080320431 0.12266196 0.038672838 0.099814333 -0.015125112 -0.10666314 0.13960642 -0.13607982 -0.13278636 0.072199002 0.029116388 -0.2397626 -0.035864059 -0.18095286 -0.06544698 -0.068048716 0.031327933 0.18559544 0.096586421 -0.082837187 -0.038646013 -0.0097123049 -0.070130371 0.04000245 -0.0049414705 -0.027374471 0.047281619 -0.089111075 0.22547951 -0.10348101 -0.0020563328 -0.10618488 -0.06013383 0.012939545 -0.18258479 -0.056158073 0.095218301 -0.032551676 0.18214975
5 0.013792247 -0.21186684 -0.039657034 0.053991545 -0.010521496 -0.15622774 0.16322806 0.092323512 0.10745854 0.0062841983 0.014480897 0.19624294 0.063775338 -0.19442849 0.041278113 -0.14114755 -0.089708529 -0.1297075 -0.1144039 -0.0079492312 0.17628352 0.018779326 0.08242473 0.0059795626 0.05626855 0.01247046 -0.016889935 0.042045802 0.081166074 0.064119846 -0.15690884 0.080902144 -0.11749431 0.062590323 -0.064520888 -0.19000879 0.23649146 0.054094091 -0.079213321 -0.099153124 -0.16029531 -0.10162229 0.1196207 0.23776241 -0.16071856 0.068444297 0.087851457 -0.12888068 -0.058578759 0.0078439126 -0.19719853 0.1817167 0.097488336 0.017473344 -0.13940766 -0.10805452 -0.10362158 -0.012730012 0.0077018337 -0.097413272 0.22678867 -0.18116294 -0.075046062 0.12846108 -0.006106203 -0.030574508 -0.019227408 0.031203095 -0.016827744 -0.2051511 -0.074092612 0.048735324 0.027889222 -0.13813621 0.19967848 0.0023770132 0.10119097 -0.012852226 -0.069791242 -0.069080383 -0.047311537 -0.18870926 -0.093767196 -0.072428666 -0.14568588 0.093972042 0.070996128 -0.0067526493 0.027574537 0.041786171 0.17800605 0.01273255 0.10313257 -0.0097791497 -0.11684949 0.075441957 -0.055645347 -0.24071822 0.074356802 0.082092859 -0.17179194 -0.069278151 -0.17994729 -0.034088816 -0.084181979 -0.013699683 0.14689675 0.091465063 -0.093838677 -0.072671734 0.0057238834 -0.0079773422 0.077790186 0.017942514 -0.056256443 0.055652395 -0.065080628 0.21553756 -0.1155604 -0.067953527 -0.071931466 -0.0055650417 0.077815004 -0.15227325 -0.14734787 0.033543892 0.0083333226 0.22604688
11 0.011204796 -0.2134206 -0.033284262 0.052667122 -0.01244654 -0.16011606 0.15579161 0.1018393 0.10561302 0.0065855836 0.010812768 0.19674109 0.068261668 -0.19692509 0.043239389 -0.14594929 -0.090999961 -0.12813383 -0.10985486 -0.013249587 0.17880514 0.015657 0.090014249 0.0030150982 0.054195628 0.016842861 -0.016986629 0.048628915 0.084491298 0.062939294 -0.15463451 0.081353284 -0.11911848 0.061050825 -0.065388806 -0.18746275 0.24116093 0.054238141 -0.075806692 -0.097061053 -0.16158783 -0.10277404 0.12767011 0.24504727 -0.16278763 0.071194127 0.088001788 -0.12839341 -0.059031203 0.010165882 -0.19944279 0.1777713 0.095703244 0.025520582 -0.1457817 -0.10870542 -0.10375493 -0.0072852261 -0.00099119404 -0.093196571 0.23024601 -0.18230191 -0.074055448 0.12879495 -0.007013733 -0.026612975 -0.027294703 0.032334443 -0.017199846 -0.20894493 -0.074970089 0.04889347 0.030333439 -0.13951819 0.20536637 0.0067916256 0.10678356 -0.012209382 -0.06847994 -0.06867183 -0.046133768 -0.19059749 -0.096970826 -0.075456917 -0.14902551 0.097824447 0.075807944 -0.011487638 0.030335071 0.043387938 0.17552371 0.0099127786 0.1018512 -0.012954648 -0.11682751 0.070025861 -0.050201755 -0.24168092 0.069223069 0.083631091 -0.16277818 -0.065883085 -0.17535968 -0.028564792 -0.082251683 -0.012814568 0.14773017 0.091275558 -0.091155805 -0.077091135 0.0072833756 -0.0038666581 0.074835554 0.021375395 -0.05834258 0.049891204 -0.071400926 0.21858758 -0.12305342 -0.073625535 -0.071798235 -0.010570163 0.081034824 -0.15535472 -0.1483852 0.028111096 0.011594063 0.22576044
21 -0.036077958 -0.19162339 0.011700004 0.085275926 0.045337759 -0.14482306 0.1959534 -0.0077497964 -0.023918966 0.00051805034 -0.039282121 0.13711175 0.033428814 -0.19219622 -0.028570697 -0.1773753 -0.028640896 -0.077450246 -0.074173905 0.044570431 0.17747943 0.041166909 0.10576282 0.042822108 0.012150889 -0.018622128 0.018294362 0.038114797 0.015224058 0.092800461 -0.11958885 0.059396412 -0.12394511 0.11411548 -0.086630933 -0.13120984 0.25989875 0.037284985 -0.049420301 -0.12720451 -0.19727249 -0.0080709439 0.083637774 0.19746354 -0.08544375 0.07927797 0.062661625 -0.14296903 -0.092099987 0.027670147 -0.09337189 0.18597844 0.10830228 -0.0004055842 -0.1544282 -0.09154328 -0.097213753 -0.036966123 -0.078288198 -0.04626343 0.16022973 -0.18585002 -0.12730993 0.13620359 0.022312772 -0.14222568 -0.019539142 -0.016980821 -0.015905911 -0.15224124 -0.030670142 0.018773666 -0.0072650658 -0.056485839 0.13604839 -0.023208557 0.095538475 -0.00010416197 -0.0058029452 0.045351367 -0.057741459 -0.24086604 -0.076653525 -0.16655372 -0.077689707 0.23501061 -0.055568337 0.0063863946 -0.037756532 -0.015853966 0.11012013 0.046610214 0.092620134 -0.012508979 -0.095848516 0.16837104 -0.17240171 -0.085878268 0.075244397 0.00028244624 -0.26739708 -0.023936359 -0.18674345 -0.071464859 -0.055916592 0.050510153 0.20258914 0.0901988 -0.082442217 -0.026296452 -0.0092144469 -0.089097351 0.026842471 -0.010664528 -0.018976862 0.045206759 -0.097281769 0.22396298 -0.088095136 0.024748148 -0.11838756 -0.082750343 -0.0094762743 -0.19751871 -0.012741647 0.12116657 -0.045162559 0.16267809
19 -0.035698172 -0.19279256 0.020670049 0.090545252 0.055754025 -0.13848586 0.19967617 -0.021800905 -0.038526259 -0.0044479016 -0.048366938 0.13101909 0.025790181 -0.18496637 -0.038606081 -0.18017328 -0.023170518 -0.074338846 -0.068646364 0.054651644 0.17404698 0.040746868 0.10856044 0.048115112 0.0060303737 -0.02019581 0.018204689 0.035950735 0.0050342088 0.095253319 -0.11652609 0.058876254 -0.12234735 0.11472654 -0.087519698 -0.12113196 0.25852898 0.033853829 -0.044865172 -0.13011606 -0.1981371 -0.00011598901 0.08168108 0.19351053 -0.070529655 0.081231125 0.060795501 -0.14907473 -0.10100997 0.032619141 -0.084894322 0.1858132 0.1044089 -0.0027607391 -0.15191789 -0.089554764 -0.099222079 -0.034813613 -0.080782175 -0.043420821 0.1515843 -0.18873346 -0.13126017 0.13712077 0.021301428 -0.15787774 -0.015998807 -0.020617392 -0.014995576 -0.14376798 -0.027429998 0.01854209 -0.013297209 -0.048225589 0.12373523 -0.030559612 0.099801242 0.0059699924 -0.0036730454 0.053085338 -0.058865864 -0.24508165 -0.071699105 -0.17594458 -0.068300985 0.25305814 -0.066506468 0.012729635 -0.052398201 -0.021816893 0.098732993 0.051963039 0.098318152 -0.013295094 -0.095196784 0.18617153 -0.18535826 -0.06612768 0.075601675 -0.012675744 -0.27568322 -0.012321545 -0.19017288 -0.084057093 -0.056580171 0.05612734 0.20953184 0.092333876 -0.080160528 -0.018749258 -0.016323877 -0.10226072 0.021132741 -0.020149408 -0.00918095 0.042425726 -0.093642406 0.22745018 -0.087071955 0.03617717 -0.1249518 -0.092344612 -0.022069303 -0.2006872 -0.0023374246 0.13177887 -0.058133077 0.15555722
23 -0.047872096 -0.19676699 0.021007951 0.10474752 0.068164974 -0.14183339 0.21688549 -0.034051728 -0.058334291 -0.0084194997 -0.056998912 0.12709515 0.022992183 -0.19678448 -0.051740933 -0.19211511 -0.013674832 -0.065085873 -0.069347091 0.065779679 0.18118621 0.047866296 0.11452383 0.05607352 -0.00035953976 -0.031288512 0.020690084 0.030515632 -0.0092359129 0.10775319 -0.11762056 0.060083661 -0.12628973 0.1273647 -0.095434412 -0.11826054 0.27670509 0.028332327 -0.049950294 -0.13939057 -0.20995598 0.016302336 0.077608243 0.19170678 -0.060680583 0.082847983 0.055309884 -0.14835396 -0.1112714 0.034365937 -0.068106659 0.19353577 0.11344378 -0.011294017 -0.15841289 -0.095525801 -0.10142034 -0.042761944 -0.097472832 -0.039739057 0.14687651 -0.19451223 -0.14271954 0.1426646 0.029016163 -0.18110958 -0.01532732 -0.024866283 -0.0099660056 -0.13283241 -0.021522503 0.016213667 -0.01864095 -0.037163187 0.11495367 -0.032340135 0.099339925 0.007265219 0.010935377 0.076889992 -0.056459729 -0.2617628 -0.06683699 -0.19428013 -0.059430581 0.28575143 -0.094015226 0.01687403 -0.066400163 -0.030947242 0.094080336 0.05769055 0.095460266 -0.01375968 -0.093538746 0.20218447 -0.20717479 -0.046462558 0.077668265 -0.020326262 -0.30502629 -0.0093404027 -0.19609165 -0.094184369 -0.053758688 0.063668877 0.22328632 0.09191978 -0.076791957 -0.0084807863 -0.021509778 -0.12074443 0.011864307 -0.027779406 -0.0065945513 0.038770325 -0.10626604 0.23382024 -0.08061181 0.049533572 -0.13245429 -0.10233272 -0.035838511 -0.21107508 0.023673065 0.14593942 -0.0690495 0.15181965
22 -0.013623368 -0.20945951 -0.0030305816 0.076184429 0.02938622 -0.15906665 0.18897517 0.027940104 0.0080415588 0.00064485864 -0.026716281 0.16195245 0.051744234 -0.2035166 -0.0054128692 -0.17840876 -0.05298464 -0.09408813 -0.083445325 0.031704444 0.18613365 0.038365997 0.10808384 0.031737115 0.019808935 0.0027704355 0.0087003578 0.043447152 0.045452308 0.091019422 -0.14102355 0.064549163 -0.1350323 0.10701969 -0.082781345 -0.15683943 0.26097819 0.034958817 -0.059449602 -0.1269325 -0.18058929 -0.049101807 0.095121123 0.22536215 -0.10670733 0.081588678 0.061224192 -0.14009559 -0.082227066 0.017705221 -0.13683373 0.17842077 0.10457911 0.013247711 -0.15606479 -0.097579874 -0.0961238 -0.021363974 -0.055240676 -0.067521863 0.18803923 -0.18658134 -0.11414047 0.13467294 0.0099897645 -0.10051118 -0.024824565 0.0016346185 -0.013689555 -0.16441527 -0.052658238 0.032846197 0.0086645838 -0.089118026 0.16099799 -0.011095894 0.099705957 -0.0022431791 -0.020827373 0.0063338596 -0.058988143 -0.23497523 -0.083452262 -0.13994952 -0.098223954 0.19527207 -0.010040521 -0.0027357056 -0.012770542 0.0029321034 0.13386433 0.032320384 0.095256418 -0.02710036 -0.10846102 0.13837245 -0.13880287 -0.13835655 0.074587286 0.02496299 -0.2358951 -0.038921658 -0.17681779 -0.05805761 -0.065551661 0.032348774 0.19159803 0.099979706 -0.090622678 -0.041569278 -0.0073305666 -0.068854332 0.050054293 0.0048719845 -0.036151364 0.04391465 -0.09076421 0.22722541 -0.10460339 -0.012614687 -0.10646748 -0.064635985 0.017909557 -0.1894697 -0.052149657 0.095479116 -0.025042808 0.19054359
15 -0.036476418 -0.19476794 0.013488259 0.084737055 0.048770856 -0.13835196 0.19575445 -0.0078521688 -0.021610042 -0.0041714609 -0.035709076 0.13417213 0.03145409 -0.18241286 -0.025215661 -0.17372674 -0.031748246 -0.077976465 -0.078157417 0.038874418 0.17278183 0.042160392 0.10315107 0.040193617 0.0086135389 -0.017036758 0.01297596 0.036882635 0.015402329 0.086824119 -0.12201383 0.062442403 -0.11830142 0.10940219 -0.081889473 -0.12763622 0.25513035 0.034264449 -0.047740787 -0.12407783 -0.19211844 -0.011248137 0.084539942 0.19462003 -0.07884644 0.078788497 0.05692552 -0.14105994 -0.094763197 0.025819961 -0.095018998 0.1809364 0.10260424 0.0031578303 -0.15178718 -0.09433876 -0.10098229 -0.037121456 -0.071689643 -0.046387907 0.16457652 -0.18187772 -0.12545457 0.12886104 0.019864416 -0.13432454 -0.017318571 -0.013282835 -0.010685743 -0.14357063 -0.029921839 0.020057317 -0.0056029037 -0.061412219 0.12943174 -0.023997458 0.098685615 0.0028009054 -0.012622502 0.038471747 -0.052880023 -0.23222214 -0.073310018 -0.16097078 -0.076832622 0.22726248 -0.052610219 0.0053387848 -0.039562907 -0.0099463714 0.1071178 0.046610441 0.095639154 -0.016965697 -0.096143186 0.16781116 -0.16423713 -0.083893038 0.074067816 0.0039060554 -0.25786254 -0.022062693 -0.18582229 -0.072269887 -0.056033697 0.043504074 0.19992679 0.09189982 -0.079283506 -0.028492354 -0.011563065 -0.090099707 0.024880489 -0.015610736 -0.018383892 0.044524029 -0.09072987 0.22324476 -0.090135686 0.023033587 -0.11263987 -0.08235345 -0.0057412544 -0.18598169 -0.019817844 0.11679463 -0.045410845 0.16534479
10 -0.024637088 -0.19466478 0.0018779088 0.082586072 0.041703418 -0.13986182 0.19069929 0.0080299601 -0.004586596 -0.0035041722 -0.029184589 0.14463028 0.0347424 -0.18408738 -0.0200727 -0.16637824 -0.034897096 -0.079571314 -0.082371712 0.037615217 0.17520231 0.038533799 0.10211247 0.038035754 0.012820682 -0.011844594 0.013141243 0.036486447 0.024465812 0.086190477 -0.12841666 0.058378313 -0.11838976 0.10861152 -0.083930835 -0.13707887 0.25703773 0.032122057 -0.057500459 -0.12537995 -0.18491195 -0.025778688 0.089120977 0.20222762 -0.086721502 0.079453573 0.064718686 -0.13750777 -0.08481501 0.019567845 -0.1079132 0.17861152 0.1057547 0.0028727283 -0.14997083 -0.088331513 -0.094900526 -0.033636115 -0.06705565 -0.05251937 0.16982447 -0.18325008 -0.12295764 0.13148566 0.015407703 -0.11833555 -0.02073949 -0.010280108 -0.017119765 -0.15032086 -0.036403228 0.022936886 0.00052946218 -0.066317417 0.13764521 -0.015483075 0.091032088 -0.0016574358 -0.018422903 0.026567413 -0.055784002 -0.22697932 -0.073477052 -0.13923609 -0.083427057 0.20959947 -0.037332445 0.002594606 -0.029036695 -0.0076472918 0.1151399 0.037654307 0.092735775 -0.013585271 -0.090003431 0.14986567 -0.15178616 -0.10825091 0.071969919 0.01184656 -0.2472737 -0.030459 -0.17959477 -0.063697822 -0.060880143 0.038440853 0.19475123 0.093768924 -0.084717393 -0.027937917 -0.0059699877 -0.083083726 0.03629481 -0.0083163846 -0.020687614 0.040338602 -0.087526605 0.21642102 -0.089477584 0.0037862835 -0.10709766 -0.07063853 0.0017641145 -0.17847452 -0.024297055 0.1023229 -0.041029524 0.16670999
16 -0.032837823 -0.19630393 0.0097543234 0.090785556 0.046527214 -0.14445509 0.20156585 -0.0027304059 -0.016661726 -0.0032112917 -0.039838087 0.1436851 0.031167949 -0.18731439 -0.022465568 -0.1797206 -0.035233654 -0.085088901 -0.084031336 0.040729549 0.17530017 0.040556692 0.10996719 0.037445594 0.016026052 -0.018438758 0.014511644 0.035057321 0.015302034 0.08915069 -0.12670015 0.066053458 -0.12307076 0.10574048 -0.081813768 -0.1292949 0.26542202 0.033076093 -0.05663557 -0.12909053 -0.19930065 -0.010331441 0.092582203 0.20336756 -0.08546412 0.076517873 0.067563027 -0.14354992 -0.098238535 0.032051459 -0.098320521 0.18856993 0.10845165 0.002462094 -0.15174136 -0.095723659 -0.099682167 -0.034366854 -0.06901031 -0.054882687 0.1670035 -0.19004519 -0.1270517 0.1311364 0.021046113 -0.140166 -0.018707581 -0.0087972237 -0.014032643 -0.15491062 -0.031313643 0.019432671 -0.0071458216 -0.064162768 0.14075121 -0.02402368 0.10141864 0.0014314359 -0.013689365 0.040059548 -0.050614074 -0.23987554 -0.073864281 -0.16121185 -0.076619186 0.23489396 -0.048051443 0.012443853 -0.038706094 -0.0092277136 0.10749495 0.046402384 0.092934951 -0.012348775 -0.096201219 0.17073721 -0.1621601 -0.094960079 0.072232075 -0.00032853906 -0.25970605 -0.020751344 -0.1858321 -0.077405952 -0.063584864 0.041356236 0.19840848 0.091145404 -0.077287436 -0.024885826 -0.012227344 -0.083579332 0.024737168 -0.011593292 -0.015950918 0.045132015 -0.093697734 0.2272779 -0.089096189 0.016844459 -0.11608433 -0.076495878 -0.0066636121 -0.19239621 -0.019530971 0.11821465 -0.045797743 0.17191511
27 -0.03164044 -0.20413956 0.010599231 0.08874169 0.053164732 -0.14512923 0.2044699 -0.0068725846 -0.034087908 -0.0020357538 -0.043711398 0.1376331 0.030437594 -0.18907177 -0.031484459 -0.18639928 -0.024154635 -0.081198782 -0.076930389 0.043891378 0.18384187 0.045944549 0.11179207 0.046931844 0.0090164943 -0.021194419 0.013779557 0.042098604 0.012348643 0.099494055 -0.12483136 0.056871198 -0.12718625 0.11465546 -0.084032215 -0.13216728 0.26477525 0.033064507 -0.053011071 -0.13498887 -0.19933735 -0.0095360195 0.08306706 0.20278516 -0.079285502 0.084895402 0.064488553 -0.14693417 -0.099148102 0.03082221 -0.092535816 0.18935779 0.10543577 0.0035967589 -0.15702024 -0.095909826 -0.098913014 -0.032191411 -0.074738897 -0.046693128 0.15941097 -0.18666625 -0.13299297 0.13660336 0.019358872 -0.146709 -0.022388702 -0.013094046 -0.013643936 -0.14865325 -0.03847811 0.026670359 -0.011269609 -0.061558392 0.13145773 -0.02673859 0.10099033 -0.00053372548 -0.0081263194 0.048003785 -0.061781622 -0.24778533 -0.075043321 -0.16323379 -0.077936515 0.24778548 -0.053513803 0.0082630366 -0.046900179 -0.015418913 0.10432803 0.041876737 0.097027965 -0.016578715 -0.097437024 0.17805721 -0.17612259 -0.084103361 0.078694217 -0.0079765758 -0.27576414 -0.019512339 -0.1847609 -0.080115363 -0.056156944 0.053850651 0.21160796 0.090008385 -0.085369319 -0.01887962 -0.012154397 -0.097013049 0.025330357 -0.01535017 -0.013580648 0.038904391 -0.096001372 0.2250627 -0.089519121 0.022768626 -0.12357448 -0.083084546 -0.010715244 -0.20024547 -0.011096058 0.12667571 -0.050592229 0.16541919
13 0.0084175523 -0.20802541 -0.021732723 0.055240303 -0.00062654761 -0.16008364 0.16734396 0.075300343 0.070926599 0.010638122 -0.0030823445 0.18162708 0.067050107 -0.20424312 0.025897833 -0.15704484 -0.080801718 -0.11412657 -0.10195866 -0.0016773143 0.18102345 0.026442494 0.088331975 0.011560712 0.040446706 0.015871502 0.00073230342 0.054967847 0.076504931 0.073209599 -0.156938 0.079078004 -0.1304381 0.079758264 -0.068270206 -0.17909698 0.24944223 0.048934489 -0.066796072 -0.10707203 -0.16566986 -0.086236306 0.11805488 0.24256402 -0.1448873 0.072754733 0.078005195 -0.13516453 -0.07031545 0.013929376 -0.18455878 0.17935316 0.10577122 0.029881867 -0.15759811 -0.10814628 -0.10396618 -0.016128937 -0.017358387 -0.089610487 0.2173344 -0.18121718 -0.094050154 0.12058203 0.0032051532 -0.05093335 -0.025449542 0.018796215 -0.016529487 -0.19612835 -0.071057551 0.040746674 0.028590096 -0.12523334 0.18882799 -0.0039887899 0.10529844 -0.009860157 -0.054154426 -0.045316052 -0.048862718 -0.21183257 -0.096769579 -0.095327109 -0.13177173 0.13032645 0.049145121 -0.008245307 0.013046951 0.034189105 0.16472912 0.017228004 0.092502944 -0.026869899 -0.11787864 0.088195376 -0.082578041 -0.21498689 0.065102234 0.065359496 -0.18504998 -0.061333381 -0.1725242 -0.041139454 -0.080671422 -0.0037445112 0.16578345 0.095307238 -0.095697291 -0.070852108 0.0032478396 -0.02949496 0.068883128 0.02201191 -0.055535123 0.046443939 -0.07944718 0.22708264 -0.11593872 -0.055451181 -0.085681334 -0.024720524 0.060299303 -0.16465516 -0.11704981 0.056274507 0.0039305752 0.21984459
17 0.0016252527 -0.21329747 -0.023518031 0.067741975 -0.0016476766 -0.15901685 0.17789792 0.071594633 0.075359568 0.0095370486 -0.0010008898 0.18843223 0.062328905 -0.19935413 0.019166553 -0.15024418 -0.074398711 -0.1220853 -0.10902765 0.008266014 0.18188757 0.019045692 0.098725162 0.010781334 0.046618059 0.0078318287 -0.010722579 0.04357541 0.068248123 0.080334872 -0.14929864 0.080683827 -0.11940019 0.075744413 -0.077536762 -0.18223381 0.25393906 0.052105743 -0.075118504 -0.10944027 -0.17903465 -0.083711125 0.11252774 0.23820435 -0.14578971 0.073581032 0.084031306 -0.1344454 -0.071320325 0.01676975 -0.17928182 0.18631344 0.10086634 0.011122275 -0.14761989 -0.10799885 -0.11169503 -0.014820513 -0.013077391 -0.087297864 0.21957827 -0.18794101 -0.091976658 0.13299249 0.0027406141 -0.060726598 -0.022859028 0.019595148 -0.015676571 -0.19165184 -0.068000786 0.043679129 0.019219292 -0.12108243 0.19030118 0.0011413343 0.10072941 -0.0078930072 -0.051933292 -0.04184778 -0.048902184 -0.20861137 -0.086739741 -0.095938422 -0.13357964 0.13899553 0.040153936 -0.0072662183 0.010336285 0.027263688 0.16160484 0.022689149 0.10449211 -0.0098748999 -0.11291583 0.10334255 -0.082338102 -0.20258753 0.076959312 0.061146114 -0.19912362 -0.058680888 -0.19062424 -0.041664746 -0.075709999 0.0022517825 0.168615 0.092095971 -0.092157185 -0.05745266 0.0029571652 -0.030776247 0.070055932 0.013457762 -0.046083242 0.049473941 -0.079229467 0.22732779 -0.11547887 -0.05063815 -0.082683705 -0.024122911 0.059647936 -0.16072233 -0.11812769 0.054640617 -0.0057966495 0.2152369
18 0.0003410459 -0.20615491 -0.020546349 0.060681731 0.010435787 -0.15754113 0.16778234 0.066662125 0.056872837 0.0094143813 -0.0082689859 0.17960855 0.0633898 -0.19952057 0.017055009 -0.16253164 -0.071540803 -0.10503417 -0.098719448 0.010958838 0.18110132 0.028606007 0.098598577 0.016391946 0.04108794 0.013751699 0.00065722957 0.049383484 0.068216294 0.077121601 -0.14984599 0.076849177 -0.12685107 0.089448482 -0.069430836 -0.17114612 0.24544963 0.041361675 -0.063836679 -0.10726999 -0.17365403 -0.071728714 0.11003547 0.23274542 -0.13547793 0.073859982 0.07079348 -0.13673022 -0.069677912 0.012077643 -0.16865765 0.17464189 0.10613898 0.026391052 -0.15562342 -0.1003373 -0.098633438 -0.019581033 -0.030290512 -0.081093051 0.20772159 -0.18400522 -0.098029763 0.12439898 0.0063340492 -0.061834805 -0.021409737 0.013938955 -0.015510207 -0.18115567 -0.064962909 0.038418964 0.026251201 -0.11616347 0.18134739 -0.001516276 0.10942127 -0.0044563361 -0.042190414 -0.029829372 -0.054811157 -0.21208432 -0.08953318 -0.10807409 -0.12275538 0.14865893 0.032953545 -0.0059390413 0.0043121455 0.025913384 0.15355833 0.021281362 0.098165415 -0.025223905 -0.11875741 0.10384472 -0.096765041 -0.1885538 0.070469171 0.052962054 -0.19938673 -0.052883267 -0.17138797 -0.04515231 -0.074500769 0.0081843259 0.16546103 0.093325339 -0.093011215 -0.061925169 -0.0044821887 -0.040822838 0.060444586 0.012922701 -0.046175212 0.045587759 -0.077851273 0.22019036 -0.110199 -0.043286074 -0.091410145 -0.039223924 0.045345116 -0.17025779 -0.09696579 0.059513979 -0.0088252835 0.2047289
12 -0.0049622608 -0.20882057 -0.016710259 0.059970975 0.0072235037 -0.15801257 0.16876511 0.059519727 0.05134216 0.0082701119 -0.0032731544 0.1789972 0.05914915 -0.19568931 0.015593207 -0.155499 -0.073478699 -0.10511043 -0.093739934 0.0051144045 0.1784486 0.031510446 0.095928401 0.013382406 0.032623708 0.0089317802 0.0018376947 0.049466405 0.06681972 0.074855134 -0.14679648 0.074922986 -0.1289112 0.08739391 -0.07092607 -0.16538949 0.24463266 0.044962149 -0.064327069 -0.10736074 -0.1677884 -0.073997535 0.1114711 0.22721674 -0.13275777 0.074221559 0.07329502 -0.13462093 -0.07390669 0.011309705 -0.16612056 0.17577678 0.10085256 0.01726564 -0.1544818 -0.10360966 -0.097654343 -0.016166003 -0.028458785 -0.076845095 0.20641315 -0.17782705 -0.099113822 0.12621878 0.00096897676 -0.06251388 -0.020075805 0.014508327 -0.014751739 -0.17771272 -0.05741673 0.039804958 0.024352502 -0.11067533 0.17696348 -0.0040614996 0.10713157 -0.0034992099 -0.042996738 -0.024670128 -0.051280696 -0.21079202 -0.092919663 -0.10687503 -0.12060243 0.14937858 0.028743232 -0.0062796585 0.0043778499 0.01973578 0.15165411 0.026455533 0.092436031 -0.023290029 -0.10956495 0.099537499 -0.093134165 -0.19222838 0.070326127 0.052959889 -0.20185256 -0.057784505 -0.17139901 -0.044021674 -0.073312126 0.0045390073 0.16894615 0.095236346 -0.087674513 -0.0620386 -0.0049401526 -0.03944217 0.062577099 0.016914826 -0.045179337 0.049926255 -0.079006277 0.22407514 -0.11415932 -0.046141319 -0.090931565 -0.038059011 0.046863362 -0.16468298 -0.097979426 0.063697666 -0.01071884 0.20444952
